{"learner":{"attributes":{"best_iteration":"99","best_ntree_limit":"100","scikit_learn":"{\"n_estimators\": 100, \"objective\": \"reg:squarederror\", \"max_depth\": null, \"max_leaves\": null, \"max_bin\": null, \"grow_policy\": null, \"learning_rate\": null, \"verbosity\": null, \"booster\": null, \"tree_method\": null, \"gamma\": null, \"min_child_weight\": null, \"max_delta_step\": null, \"subsample\": null, \"sampling_method\": null, \"colsample_bytree\": null, \"colsample_bylevel\": null, \"colsample_bynode\": null, \"reg_alpha\": null, \"reg_lambda\": null, \"scale_pos_weight\": null, \"base_score\": null, \"missing\": NaN, \"num_parallel_tree\": null, \"random_state\": null, \"n_jobs\": null, \"monotone_constraints\": null, \"interaction_constraints\": null, \"importance_type\": null, \"gpu_id\": null, \"validate_parameters\": null, \"predictor\": null, \"enable_categorical\": false, \"feature_types\": null, \"max_cat_to_onehot\": null, \"max_cat_threshold\": null, \"eval_metric\": null, \"early_stopping_rounds\": null, \"callbacks\": null, \"_estimator_type\": \"regressor\"}"},"feature_names":[],"feature_types":[],"gradient_booster":{"model":{"gbtree_model_param":{"num_parallel_tree":"1","num_trees":"100","size_leaf_vector":"0"},"tree_info":[0,0,0,0,0,0,0,0,0,0,0,0,0,0,0,0,0,0,0,0,0,0,0,0,0,0,0,0,0,0,0,0,0,0,0,0,0,0,0,0,0,0,0,0,0,0,0,0,0,0,0,0,0,0,0,0,0,0,0,0,0,0,0,0,0,0,0,0,0,0,0,0,0,0,0,0,0,0,0,0,0,0,0,0,0,0,0,0,0,0,0,0,0,0,0,0,0,0,0,0],"trees":[{"base_weights":[1.3157938E1,1.0745364E1,1.5465806E1,9.421037E0,1.1745595E1,1.4116159E1,1.6453005E1,1.2693334E1,1.0596829E1],"categories":[],"categories_nodes":[],"categories_segments":[],"categories_sizes":[],"default_left":[1,1,1,0,1,0,0,0,0],"id":0,"left_children":[1,3,5,-1,7,-1,-1,-1,-1],"loss_changes":[3.2358047E3,2.893828E2,1.8077344E2,0E0,4.8396484E1,0E0,0E0,0E0,0E0],"parents":[2147483647,0,0,1,1,2,2,4,4],"right_children":[2,4,6,-1,8,-1,-1,-1,-1],"split_conditions":[2.6030493E-1,2.1544054E-1,2.962981E-1,2.826311E0,5.5E0,4.234848E0,4.9359016E0,3.8080003E0,3.179049E0],"split_indices":[1,1,1,0,0,0,0,0,0],"split_type":[0,0,0,0,0,0,0,0,0],"sum_hessian":[6.1E2,3.01E2,3.09E2,1.34E2,1.67E2,1.37E2,1.72E2,8.6E1,8.1E1],"tree_param":{"num_deleted":"0","num_feature":"2","num_nodes":"9","size_leaf_vector":"0"}},{"base_weights":[9.241627E0,7.2877264E0,1.0677856E1,6.109741E0,7.781135E0,9.873396E0,1.1747105E1,8.629205E0,7.0239596E0,1.0860182E1,8.801162E0],"categories":[],"categories_nodes":[],"categories_segments":[],"categories_sizes":[],"default_left":[1,1,1,0,1,1,0,0,0,0,0],"id":1,"left_children":[1,3,5,-1,7,9,-1,-1,-1,-1,-1],"loss_changes":[1.6368008E3,1.0474121E2,1.8507422E2,0E0,5.561621E1,1.2237891E2,0E0,0E0,0E0,0E0,0E0],"parents":[2147483647,0,0,1,1,2,2,4,4,5,5],"right_children":[2,4,6,-1,8,10,-1,-1,-1,-1,-1],"split_conditions":[2.5052303E-1,1.9900551E-1,3.0534548E-1,1.8329225E0,4.5E0,5.5E0,3.5241315E0,2.5887616E0,2.107188E0,3.2580547E0,2.6403487E0],"split_indices":[1,1,1,0,0,0,0,0,0,0,0],"split_type":[0,0,0,0,0,0,0,0,0,0,0],"sum_hessian":[6.1E2,2.61E2,3.49E2,8.1E1,1.8E2,2.05E2,1.44E2,8E1,1E2,1.02E2,1.03E2],"tree_param":{"num_deleted":"0","num_feature":"2","num_nodes":"11","size_leaf_vector":"0"}},{"base_weights":[6.495246E0,5.434248E0,7.8878183E0,4.7234917E0,6.1761174E0,7.506671E0,8.807432E0,5.22279E0,4.2470894E0,6.590308E0,5.0668206E0,8.235552E0,6.51252E0,3.4873905E0,5.605355E0,3.1918979E0,4.412043E0,4.7121415E0,3.6150925E0],"categories":[],"categories_nodes":[],"categories_segments":[],"categories_sizes":[],"default_left":[1,1,1,1,1,1,0,1,1,0,0,0,0,0,0,0,1,0,0],"id":2,"left_children":[1,3,5,7,9,11,-1,13,15,-1,-1,-1,-1,-1,-1,-1,17,-1,-1],"loss_changes":[8.5989844E2,1.5537695E2,2.5717773E1,2.1347656E1,4.379834E1,8.5493164E1,0E0,3.6884033E1,3.1489258E0,0E0,0E0,0E0,0E0,0E0,0E0,0E0,2.815796E0,0E0,0E0],"parents":[2147483647,0,0,1,1,2,2,3,3,4,4,5,5,7,7,8,8,16,16],"right_children":[2,4,6,8,10,12,-1,14,16,-1,-1,-1,-1,-1,-1,-1,18,-1,-1],"split_conditions":[2.7334994E-1,2.2944635E-1,3.287696E-1,3.5E0,7.5E0,6.5E0,2.6422298E0,1.6949694E-1,1.8721159E-1,1.9770925E0,1.5200462E0,2.4706657E0,1.953756E0,1.0462172E0,1.6816065E0,9.575694E-1,7.5E0,1.4136425E0,1.0845279E0],"split_indices":[1,1,1,0,0,0,0,1,1,0,0,0,0,0,0,0,0,0,0],"split_type":[0,0,0,0,0,0,0,0,0,0,0,0,0,0,0,0,0,0,0],"sum_hessian":[6.1E2,3.49E2,2.61E2,1.82E2,1.67E2,1.91E2,7E1,8.4E1,9.8E1,1.18E2,4.9E1,1.06E2,8.5E1,1.7E1,6.7E1,1.6E1,8.2E1,5.6E1,2.6E1],"tree_param":{"num_deleted":"0","num_feature":"2","num_nodes":"19","size_leaf_vector":"0"}},{"base_weights":[4.5740814E0,3.8731954E0,5.626783E0,3.378406E0,4.4480114E0,6.3549542E0,5.340663E0,2.611076E0,3.5337079E0,5.321952E0,4.021576E0,4.9458013E0,6.4153423E0,4.346875E0,3.2232249E0,5.2398963E0,4.2774105E0,3.4795914E0,2.7598152E0,2.003615E0,2.9772315E0],"categories":[],"categories_nodes":[],"categories_segments":[],"categories_sizes":[],"default_left":[1,1,1,1,1,0,1,0,1,0,0,1,0,0,1,0,0,0,1,0,0],"id":3,"left_children":[1,3,5,7,9,-1,11,-1,13,-1,-1,15,-1,-1,17,-1,-1,-1,19,-1,-1],"loss_changes":[4.290166E2,9.020557E1,1.647998E1,1.4964355E1,4.120752E1,0E0,4.465381E1,0E0,2.7899658E1,0E0,0E0,4.3203125E0,0E0,0E0,5.12854E0,0E0,0E0,0E0,2.0909119E0,0E0,0E0],"parents":[2147483647,0,0,1,1,2,2,3,3,4,4,6,6,8,8,11,11,14,14,18,18],"right_children":[2,4,6,8,10,-1,12,-1,14,-1,-1,16,-1,-1,18,-1,-1,-1,20,-1,-1],"split_conditions":[2.784238E-1,2.3483455E-1,4.5E0,1.8072453E-1,3.5E0,1.9064864E0,3.399461E-1,7.833229E-1,2.5E0,1.5965856E0,1.2064729E0,8.5E0,1.9246027E0,1.3040626E0,6.5E0,1.5719689E0,1.2832232E0,1.0438775E0,2.0514318E-1,6.010845E-1,8.9316946E-1],"split_indices":[1,1,0,1,0,0,1,0,0,0,0,0,0,0,0,0,0,0,1,0,0],"split_type":[0,0,0,0,0,0,0,0,0,0,0,0,0,0,0,0,0,0,0,0,0],"sum_hessian":[6.1E2,3.69E2,2.41E2,2.02E2,1.67E2,6.2E1,1.79E2,3.7E1,1.65E2,5.1E1,1.16E2,1.35E2,4.4E1,4.2E1,1.23E2,8.9E1,4.6E1,7.5E1,4.8E1,1.3E1,3.5E1],"tree_param":{"num_deleted":"0","num_feature":"2","num_nodes":"21","size_leaf_vector":"0"}},{"base_weights":[3.2249582E0,2.7591965E0,4.0286617E0,2.3997593E0,3.1738083E0,4.3167176E0,3.6056223E0,2.7981327E0,2.2058916E0,3.8263025E0,2.8588004E0,3.9904287E0,4.8045216E0,3.2778559E0,4.6201277E0,1.2885728E0,2.9553926E0,1.8282619E0,2.4223382E0,3.045325E0,2.297486E0,4.529466E0,3.6100223E0,1.9918724E0,1.4699957E0,2.5405192E0,1.8019084E0,1.1304715E0,2.1221285E0],"categories":[],"categories_nodes":[],"categories_segments":[],"categories_sizes":[],"default_left":[1,1,1,1,1,1,1,1,1,0,1,1,0,0,0,0,0,1,1,0,0,0,0,1,0,0,0,0,0],"id":4,"left_children":[1,3,5,7,9,11,13,15,17,-1,19,21,-1,-1,-1,-1,-1,23,25,-1,-1,-1,-1,27,-1,-1,-1,-1,-1],"loss_changes":[2.1760254E2,5.050415E1,1.1488525E1,1.0277954E1,2.5647705E1,1.041748E0,1.6777954E1,1.1859802E1,7.668396E0,0E0,5.986084E0,4.6289062E-1,0E0,0E0,0E0,0E0,0E0,4.716797E-1,2.0946045E0,0E0,0E0,0E0,0E0,1.7525024E0,0E0,0E0,0E0,0E0,0E0],"parents":[2147483647,0,0,1,1,2,2,3,3,4,4,5,5,6,6,7,7,8,8,10,10,11,11,17,17,18,18,23,23],"right_children":[2,4,6,8,10,12,14,16,18,-1,20,22,-1,-1,-1,-1,-1,24,26,-1,-1,-1,-1,28,-1,-1,-1,-1,-1],"split_conditions":[2.8368953E-1,2.376247E-1,7.5E0,2.5E0,3.5E0,3.1662488E-1,3.519092E-1,1.5686944E-1,2.0373574E-1,1.1478908E0,8.5E0,3.5E0,1.4413565E0,9.833568E-1,1.3860383E0,3.8657185E-1,8.8661784E-1,5.5E0,8.5E0,9.135975E-1,6.892458E-1,1.3588399E0,1.0830067E0,1.6783512E-1,4.4099873E-1,7.6215583E-1,5.405725E-1,3.3914146E-1,6.366386E-1],"split_indices":[1,1,0,0,0,1,1,1,1,0,0,0,0,0,0,0,0,0,0,0,0,0,0,1,0,0,0,0,0],"split_type":[0,0,0,0,0,0,0,0,0,0,0,0,0,0,0,0,0,0,0,0,0,0,0,0,0,0,0,0,0],"sum_hessian":[6.1E2,3.89E2,2.21E2,2.12E2,1.77E2,1.26E2,9.5E1,6.5E1,1.47E2,5.4E1,1.23E2,8.1E1,4.5E1,7.5E1,2E1,7E0,5.8E1,5.7E1,9E1,8.9E1,3.4E1,2.9E1,5.2E1,3.6E1,2.1E1,7.3E1,1.7E1,6E0,3E1],"tree_param":{"num_deleted":"0","num_feature":"2","num_nodes":"29","size_leaf_vector":"0"}},{"base_weights":[2.278741E0,1.8698469E0,2.742961E0,1.5001144E0,2.05206E0,2.4995506E0,3.0998118E0,1.6519402E0,1.1609817E0,2.6298292E0,1.8812574E0,2.9904191E0,2.1793957E0,3.3080807E0,2.7074914E0,9.820538E-1,1.7639494E0,5.8821094E-1,1.1932702E0,1.949454E0,1.2689008E0,2.2694213E0,1.5981867E0,2.3876233E0,3.361504E0,1.4791977E0,1.9240669E0,3.691151E-1,1.2968308E0],"categories":[],"categories_nodes":[],"categories_segments":[],"categories_sizes":[],"default_left":[1,1,1,1,1,1,1,1,1,0,1,0,1,0,1,0,1,0,0,0,1,0,0,0,0,0,0,0,0],"id":5,"left_children":[1,3,5,7,9,11,13,15,17,-1,19,-1,21,-1,23,-1,25,-1,-1,-1,27,-1,-1,-1,-1,-1,-1,-1,-1],"loss_changes":[1.1084912E2,1.9019043E1,1.692041E1,3.8489075E0,1.6467163E1,2.0827393E1,1.1291504E-1,3.8952026E0,8.735657E-4,0E0,4.6674194E0,0E0,2.076355E0,0E0,1.1786804E0,0E0,2.633667E-2,0E0,0E0,0E0,2.3937225E-2,0E0,0E0,0E0,0E0,0E0,0E0,0E0,0E0],"parents":[2147483647,0,0,1,1,2,2,3,3,4,4,5,5,6,6,7,7,8,8,10,10,12,12,14,14,16,16,20,20],"right_children":[2,4,6,8,10,12,14,16,18,-1,20,-1,22,-1,24,-1,26,-1,-1,-1,28,-1,-1,-1,-1,-1,-1,-1,-1],"split_conditions":[2.6726192E-1,2.0942473E-1,3.149628E-1,4.5E0,2.5E0,4.5E0,8.5E0,1.619507E-1,1.7597729E-1,7.889488E-1,9.5E0,8.971258E-1,9.5E0,9.9242425E-1,3.5821217E-1,2.9461616E-1,1.8519224E-1,1.7646329E-1,3.579811E-1,5.848362E-1,2.1242198E-1,6.808264E-1,4.7945604E-1,7.16287E-1,1.0084512E0,4.4375935E-1,5.772201E-1,1.1073454E-1,3.8904926E-1],"split_indices":[1,1,1,0,0,0,0,1,1,0,0,0,0,0,1,0,1,0,0,0,1,0,0,0,0,0,0,0,0],"split_type":[0,0,0,0,0,0,0,0,0,0,0,0,0,0,0,0,0,0,0,0,0,0,0,0,0,0,0,0,0],"sum_hessian":[6.1E2,3.27E2,2.83E2,1.11E2,2.16E2,1.73E2,1.1E2,7.4E1,3.7E1,4.6E1,1.7E2,6.5E1,1.08E2,6.7E1,4.3E1,1.2E1,6.2E1,3E0,3.4E1,1.51E2,1.9E1,9.1E1,1.7E1,3.2E1,1.1E1,2.6E1,3.6E1,1E0,1.8E1],"tree_param":{"num_deleted":"0","num_feature":"2","num_nodes":"29","size_leaf_vector":"0"}},{"base_weights":[1.6090273E0,1.1953504E0,1.8573537E0,1.6042027E0,1.1120704E0,1.7292998E0,2.275011E0,5.2502847E-1,1.683982E0,8.239657E-1,1.1999425E0,2.3803842E0,1.5801772E0,9.000064E-1,6.1088145E-1,1.32713E0,9.607504E-1,1.6806213E0,1.2598386E0,3.7688625E-1,9.3847334E-1,7.779085E-1,1.0772116E0,1.5491381E0,1.8254443E0,8.3282536E-1,4.6520075E-1],"categories":[],"categories_nodes":[],"categories_segments":[],"categories_sizes":[],"default_left":[1,1,1,1,1,1,0,0,0,1,1,0,1,1,0,0,1,1,0,0,0,1,0,0,0,0,0],"id":6,"left_children":[1,3,5,7,9,11,-1,-1,-1,13,15,-1,17,19,-1,-1,21,23,-1,-1,-1,25,-1,-1,-1,-1,-1],"loss_changes":[6.054602E1,6.1154175E0,1.6389282E1,2.3014145E0,3.9733124E0,2.4880493E1,0E0,0E0,0E0,2.4414825E-1,3.2274475E0,0E0,5.701477E0,3.3047867E-1,0E0,0E0,3.3319473E-1,6.378174E-1,0E0,0E0,0E0,4.189205E-2,0E0,0E0,0E0,0E0,0E0],"parents":[2147483647,0,0,1,1,2,2,3,3,4,4,5,5,9,9,10,10,12,12,13,13,16,16,17,17,21,21],"right_children":[2,4,6,8,10,12,-1,-1,-1,14,16,-1,18,20,-1,-1,22,24,-1,-1,-1,26,-1,-1,-1,-1,-1],"split_conditions":[2.4242523E-1,1.5E0,3.2345247E-1,1.5004596E-1,1.9292805E-1,2.5E0,6.8250334E-1,1.5750855E-1,5.051946E-1,4.5E0,6.5E0,7.1411526E-1,8.5E0,1.5425795E-1,1.8326443E-1,3.98139E-1,2.2140524E-1,2.863978E-1,3.779516E-1,1.13065876E-1,2.81542E-1,9.5E0,3.231635E-1,4.6474144E-1,5.4763335E-1,2.4984762E-1,1.3956024E-1],"split_indices":[1,0,1,1,1,0,0,0,0,0,0,0,0,1,0,0,1,1,0,0,0,0,0,0,0,0,0],"split_type":[0,0,0,0,0,0,0,0,0,0,0,0,0,0,0,0,0,0,0,0,0,0,0,0,0,0,0],"sum_hessian":[6.1E2,2.31E2,3.79E2,3.6E1,1.95E2,2.94E2,8.5E1,3E0,3.3E1,4.8E1,1.47E2,5.2E1,2.42E2,3.3E1,1.5E1,9.3E1,5.4E1,1.81E2,6.1E1,3E0,3E1,2.4E1,3E1,1.01E2,8E1,1.9E1,5E0],"tree_param":{"num_deleted":"0","num_feature":"2","num_nodes":"27","size_leaf_vector":"0"}},{"base_weights":[1.1347286E0,9.627936E-1,1.4537818E0,1.3335832E0,9.023168E-1,1.7363179E0,1.3022759E0,8.050843E-1,1.5349226E0,7.1221715E-1,1.0115399E0,1.5035182E0,2.0401344E0,1.1813667E0,1.980754E0,1.11264944E-1,8.4149396E-1,7.858081E-1,5.6553936E-1,1.1036242E0,8.053427E-1,1.8241651E0,1.2930775E0,1.2440401E0,9.1245186E-1,4.6115464E-1,8.6129993E-1,2.511021E-1,5.8127135E-1,8.710011E-1,6.404698E-1,1.3348627E-1,4.7257712E-1,8.976112E-1,5.948414E-1,6.293434E-1,4.1822714E-1],"categories":[],"categories_nodes":[],"categories_segments":[],"categories_sizes":[],"default_left":[1,1,1,1,1,1,1,1,0,1,1,1,0,1,0,0,0,1,1,0,1,0,0,0,0,1,1,0,1,0,0,0,0,0,0,0,0],"id":7,"left_children":[1,3,5,7,9,11,13,15,-1,17,19,21,-1,23,-1,-1,-1,25,27,-1,29,-1,-1,-1,-1,31,33,-1,35,-1,-1,-1,-1,-1,-1,-1,-1],"loss_changes":[3.2117554E1,7.766327E0,6.81369E0,4.510269E0,6.484436E0,1.9543304E0,9.308868E0,3.358221E-1,0E0,9.588318E-1,3.2504883E0,6.1021423E-1,0E0,9.378967E-1,0E0,0E0,0E0,1.6615334E0,8.653736E-2,0E0,2.1074677E-1,0E0,0E0,0E0,0E0,4.2877197E-3,1.1431885E-1,0E0,8.165741E-2,0E0,0E0,0E0,0E0,0E0,0E0,0E0,0E0],"parents":[2147483647,0,0,1,1,2,2,3,3,4,4,5,5,6,6,7,7,9,9,10,10,11,11,13,13,17,17,18,18,20,20,25,25,26,26,28,28],"right_children":[2,4,6,8,10,12,14,16,-1,18,20,22,-1,24,-1,-1,-1,26,28,-1,30,-1,-1,-1,-1,32,34,-1,36,-1,-1,-1,-1,-1,-1,-1,-1],"split_conditions":[2.863978E-1,1.5E0,5.5E0,1.8988103E-1,2.2263527E-1,3.1169042E-1,3.5608622E-1,1.3990879E-1,4.604768E-1,5.5E0,7.5E0,2.5E0,6.1204034E-1,9.5E0,5.9422624E-1,3.3379484E-2,2.524482E-1,1.7493306E-1,1.8239778E-1,3.310873E-1,9.5E0,5.4724956E-1,3.8792327E-1,3.7321204E-1,2.7373558E-1,1.478272E-1,2.1544054E-1,7.533063E-2,8.5E0,2.6130036E-1,1.9214095E-1,4.0045884E-2,1.4177315E-1,2.6928338E-1,1.7845243E-1,1.8880303E-1,1.2546815E-1],"split_indices":[1,0,0,1,1,1,1,1,0,0,0,0,0,0,0,0,0,1,1,0,0,0,0,0,0,1,1,0,0,0,0,0,0,0,0,0,0],"split_type":[0,0,0,0,0,0,0,0,0,0,0,0,0,0,0,0,0,0,0,0,0,0,0,0,0,0,0,0,0,0,0,0,0,0,0,0,0],"sum_hessian":[6.1E2,3.99E2,2.11E2,5.3E1,3.46E2,7E1,1.41E2,1.6E1,3.7E1,1.29E2,2.17E2,4.3E1,2.7E1,1.22E2,1.9E1,1E0,1.5E1,8.3E1,4.6E1,1.47E2,7E1,1.4E1,2.9E1,9.6E1,2.6E1,1.7E1,6.6E1,3E0,4.3E1,4.7E1,2.3E1,1E0,1.6E1,5.6E1,1E1,3.1E1,1.2E1],"tree_param":{"num_deleted":"0","num_feature":"2","num_nodes":"37","size_leaf_vector":"0"}},{"base_weights":[8.030472E-1,6.8033063E-1,1.0308E0,9.473286E-1,6.368199E-1,1.3924285E0,9.563521E-1,5.601697E-1,1.0818726E0,5.082869E-1,7.1432734E-1,8.4526515E-1,1.2880397E0,1.5974379E-1,6.059631E-1,3.8070714E-1,5.643882E-1,8.006331E-1,5.9563243E-1,9.3027145E-1,7.306503E-1,1.4307332E0,8.902648E-1,3.858151E-1,8.053255E-2,6.5738034E-1,4.293888E-1,6.553483E-1,4.9461398E-1,5.9360504E-1,1.3055313E0,1.134634E-1,3.8959816E-1,7.0951885E-1,4.6518168E-1,4.7300777E-1,3.0241027E-1,5.300037E-1,8.0039096E-1,2.2111654E-1,5.6929266E-1],"categories":[],"categories_nodes":[],"categories_segments":[],"categories_sizes":[],"default_left":[1,1,1,1,1,0,1,1,0,1,1,1,1,0,0,1,1,0,1,0,0,0,1,1,0,1,1,1,1,0,0,0,0,0,0,0,0,0,0,0,0],"id":8,"left_children":[1,3,5,7,9,-1,11,13,-1,15,17,19,21,-1,-1,23,25,-1,27,-1,-1,-1,29,31,-1,33,35,37,39,-1,-1,-1,-1,-1,-1,-1,-1,-1,-1,-1,-1],"loss_changes":[1.637558E1,4.043625E0,4.3759155E0,2.2068253E0,3.093811E0,0E0,5.506714E0,1.9659138E-1,0E0,7.4422073E-1,1.7153473E0,6.5509033E-1,1.1669464E0,0E0,0E0,3.6393166E-2,8.601322E-1,0E0,2.4290466E-1,0E0,0E0,0E0,9.497299E-1,9.918213E-5,0E0,1.9103432E-1,7.8504086E-2,5.938854E-1,6.706724E-1,0E0,0E0,0E0,0E0,0E0,0E0,0E0,0E0,0E0,0E0,0E0,0E0],"parents":[2147483647,0,0,1,1,2,2,3,3,4,4,6,6,7,7,9,9,10,10,11,11,12,12,15,15,16,16,18,18,22,22,23,23,25,25,26,26,27,27,28,28],"right_children":[2,4,6,8,10,-1,12,14,-1,16,18,20,22,-1,-1,24,26,-1,28,-1,-1,-1,30,32,-1,34,36,38,40,-1,-1,-1,-1,-1,-1,-1,-1,-1,-1,-1,-1],"split_conditions":[2.863978E-1,1.5E0,3.5E0,1.8750733E-1,2.2388372E-1,4.1772857E-1,3.4188312E-1,1.4496899E-1,3.2456177E-1,1.9138804E-1,6.5E0,7.5E0,9.5E0,4.7923137E-2,1.8178894E-1,7.5E0,5.5E0,2.4018992E-1,2.608745E-1,2.7908143E-1,2.191951E-1,4.2922E-1,3.6811203E-1,1.478272E-1,2.4159767E-2,2.1544054E-1,8.5E0,2.453998E-1,2.6726192E-1,1.7808151E-1,3.916594E-1,3.403902E-2,1.16879456E-1,2.1285567E-1,1.3955452E-1,1.4190234E-1,9.072308E-2,1.5900113E-1,2.401173E-1,6.633496E-2,1.7078781E-1],"split_indices":[1,0,0,1,1,0,1,1,0,1,0,0,0,0,0,0,0,0,1,0,0,0,1,1,0,1,0,1,1,0,0,0,0,0,0,0,0,0,0,0,0],"split_type":[0,0,0,0,0,0,0,0,0,0,0,0,0,0,0,0,0,0,0,0,0,0,0,0,0,0,0,0,0,0,0,0,0,0,0,0,0,0,0,0,0],"sum_hessian":[6.1E2,3.99E2,2.11E2,5.3E1,3.46E2,3.3E1,1.78E2,1.5E1,3.8E1,1.33E2,2.13E2,1.36E2,4.2E1,2E0,1.3E1,4.3E1,9E1,1.2E2,9.3E1,7.4E1,6.2E1,2.9E1,1.3E1,4.2E1,1E0,5.1E1,3.9E1,5.5E1,3.8E1,9E0,4E0,1E0,4.1E1,3.8E1,1.3E1,2.7E1,1.2E1,3.2E1,2.3E1,9E0,2.9E1],"tree_param":{"num_deleted":"0","num_feature":"2","num_nodes":"41","size_leaf_vector":"0"}},{"base_weights":[5.6885284E-1,4.0948543E-1,6.646539E-1,4.9100915E-1,3.4511057E-1,9.2901844E-1,6.189648E-1,3.4544817E-1,5.6748956E-1,2.1434355E-1,3.7193683E-1,6.704809E-1,1.0396627E0,5.463563E-1,8.515749E-1,1.4406824E-1,3.589797E-1,-1.2038708E-2,2.2427775E-1,3.8666525E-1,2.2066009E-1,5.977089E-1,4.5668235E-1,1.162582E0,7.350109E-1,3.952985E-1,2.322847E-1,2.3373684E-1,3.3593178E-3,4.8859756E-2,2.5013417E-1,4.9344826E-1,3.7153992E-1,5.874542E-1,1.1567997E0,2.7875185E-2,2.518996E-1,3.030243E-1,1.8448457E-1,2.8419232E-1,4.2854112E-1,6.3750947E-1,4.3108103E-1],"categories":[],"categories_nodes":[],"categories_segments":[],"categories_sizes":[],"default_left":[1,1,1,1,1,1,1,1,0,1,1,0,0,1,1,0,1,0,1,0,1,0,1,0,1,0,1,1,0,0,0,0,1,1,0,0,0,0,0,0,0,0,0],"id":9,"left_children":[1,3,5,7,9,11,13,15,-1,17,19,-1,-1,21,23,-1,25,-1,27,-1,29,-1,31,-1,33,-1,35,37,-1,-1,-1,-1,39,41,-1,-1,-1,-1,-1,-1,-1,-1,-1],"loss_changes":[9.05632E0,1.0481033E0,4.0148315E0,9.1721916E-1,3.8684273E-1,8.4763336E-1,5.0575943E0,4.9106598E-2,0E0,5.8923244E-2,1.5753746E-1,0E0,0E0,8.874893E-1,1.9006577E0,0E0,6.462574E-2,0E0,4.936731E-2,0E0,4.854244E-2,0E0,1.1717796E-1,0E0,2.9302273E0,0E0,3.3073068E-2,2.2585511E-2,0E0,0E0,0E0,0E0,4.251623E-2,7.74107E-2,0E0,0E0,0E0,0E0,0E0,0E0,0E0,0E0,0E0],"parents":[2147483647,0,0,1,1,2,2,3,3,4,4,5,5,6,6,7,7,9,9,10,10,13,13,14,14,16,16,18,18,20,20,22,22,24,24,26,26,27,27,32,32,33,33],"right_children":[2,4,6,8,10,12,14,16,-1,18,20,-1,-1,22,24,-1,26,-1,28,-1,30,-1,32,-1,34,-1,36,38,-1,-1,-1,-1,40,42,-1,-1,-1,-1,-1,-1,-1,-1,-1],"split_conditions":[2.4242523E-1,3.5E0,2.5E0,1.8779758E-1,1.9386157E-1,2.6490194E-1,3.269779E-1,1.4634931E-1,1.7024687E-1,1.6264462E-1,9.5E0,2.0114428E-1,3.1189883E-1,7.5E0,6.5E0,4.3220475E-2,2.5E0,-3.6116124E-3,8.5E0,1.1599958E-1,2.0659003E-1,1.7931268E-1,9.5E0,3.487746E-1,3.603636E-1,1.1858956E-1,1.5528324E-1,4.5E0,1.0077953E-3,1.4657928E-2,7.504025E-2,1.4803448E-1,2.8169635E-1,9.5E0,3.470399E-1,8.362556E-3,7.556988E-2,9.090729E-2,5.5345375E-2,8.52577E-2,1.2856235E-1,1.9125284E-1,1.2932432E-1],"split_indices":[1,0,0,1,1,1,1,1,0,1,0,0,0,0,0,0,0,0,0,0,1,0,0,0,1,0,1,0,0,0,0,0,1,0,0,0,0,0,0,0,0,0,0],"split_type":[0,0,0,0,0,0,0,0,0,0,0,0,0,0,0,0,0,0,0,0,0,0,0,0,0,0,0,0,0,0,0,0,0,0,0,0,0,0,0,0,0,0,0],"sum_hessian":[6.1E2,2.31E2,3.79E2,9.9E1,1.32E2,5.3E1,3.26E2,3.6E1,6.3E1,2.4E1,1.08E2,1.8E1,3.5E1,2.51E2,7.5E1,3E0,3.3E1,1E0,2.3E1,9.7E1,1.1E1,1.56E2,9.5E1,1.8E1,5.7E1,2.4E1,9E0,2.2E1,1E0,2E0,9E0,6.3E1,3.2E1,4.4E1,1.3E1,1E0,8E0,7E0,1.5E1,1.5E1,1.7E1,3.1E1,1.3E1],"tree_param":{"num_deleted":"0","num_feature":"2","num_nodes":"43","size_leaf_vector":"0"}},{"base_weights":[4.0283856E-1,3.39456E-1,5.313925E-1,5.0965124E-1,3.1180784E-1,6.718891E-1,4.603361E-1,3.616815E-1,6.664747E-1,2.1912296E-1,3.4131396E-1,4.803904E-1,8.223054E-1,3.8359833E-1,7.302444E-1,1.8192299E-1,3.9754662E-1,2.2803314E-1,8.217035E-2,3.7153938E-1,2.7032295E-1,5.7304263E-1,3.7038016E-1,9.7477925E-1,6.8789905E-1,6.26814E-1,3.407065E-1,8.9550847E-1,5.7949924E-1,4.9003363E-2,1.9590902E-1,4.2345613E-1,2.0921727E-1,1.6441008E-1,2.574338E-1,2.855301E-3,9.491364E-2,3.312037E-1,3.9356226E-1,3.102826E-1,1.9916467E-1,1.5053864E-1,4.2644385E-1,5.3790206E-1,8.8315606E-1,2.5849193E-1,4.0788546E-1,3.784642E-1,9.18492E-1,1.0760784E-2,2.561412E-1,1.7313635E-1,-3.996277E-2,3.1222934E-1,2.1720122E-1,1.13054514E-1,3.9087933E-2,4.4386107E-1,2.910898E-1,4.610186E-1,3.7070543E-1,2.1648687E-1,4.1069064E-1,6.012281E-3,2.3344146E-1,4.201507E-1,1.6365753E-1],"categories":[],"categories_nodes":[],"categories_segments":[],"categories_sizes":[],"default_left":[1,1,1,1,1,1,1,1,0,1,1,1,1,1,1,1,1,1,1,1,1,0,1,0,1,0,1,0,1,0,0,0,1,1,1,0,1,1,1,1,1,0,0,0,0,1,0,0,0,0,0,0,0,0,0,0,0,0,0,0,0,0,0,0,0,0,0],"id":10,"left_children":[1,3,5,7,9,11,13,15,-1,17,19,21,23,25,27,29,31,33,35,37,39,-1,41,-1,43,-1,45,-1,47,-1,-1,-1,49,51,53,-1,55,57,59,61,63,-1,-1,-1,-1,65,-1,-1,-1,-1,-1,-1,-1,-1,-1,-1,-1,-1,-1,-1,-1,-1,-1,-1,-1,-1,-1],"loss_changes":[4.7981033E0,1.7797852E0,1.6873436E0,1.0584364E0,9.015236E-1,1.4772644E0,2.5367336E0,1.2753582E-1,0E0,8.9867115E-2,4.7676277E-1,1.037302E-1,4.6722412E-2,9.130926E-1,2.0352268E-1,3.4129322E-3,3.339386E-2,1.1293125E-1,6.8041347E-3,3.4877777E-2,1.770525E-1,0E0,1.4533067E-1,0E0,1.6928387E-1,0E0,4.137354E-1,0E0,8.7907314E-1,0E0,0E0,0E0,4.380551E-2,5.8637977E-2,5.343461E-2,0E0,1.657296E-3,1.9617319E-1,6.4086914E-3,4.0081882E-1,2.1707761E-1,0E0,0E0,0E0,0E0,6.2112546E-1,0E0,0E0,0E0,0E0,0E0,0E0,0E0,0E0,0E0,0E0,0E0,0E0,0E0,0E0,0E0,0E0,0E0,0E0,0E0,0E0,0E0],"parents":[2147483647,0,0,1,1,2,2,3,3,4,4,5,5,6,6,7,7,9,9,10,10,11,11,12,12,13,13,14,14,15,15,16,16,17,17,18,18,19,19,20,20,22,22,24,24,26,26,28,28,32,32,33,33,34,34,36,36,37,37,38,38,39,39,40,40,45,45],"right_children":[2,4,6,8,10,12,14,16,-1,18,20,22,24,26,28,30,32,34,36,38,40,-1,42,-1,44,-1,46,-1,48,-1,-1,-1,50,52,54,-1,56,58,60,62,64,-1,-1,-1,-1,66,-1,-1,-1,-1,-1,-1,-1,-1,-1,-1,-1,-1,-1,-1,-1,-1,-1,-1,-1,-1,-1],"split_conditions":[2.8915828E-1,1.5E0,5.5E0,2.2599593E-1,2.0942473E-1,3.069074E-1,3.498572E-1,1.6439468E-1,1.9994242E-1,8.5E0,7.5E0,2.977686E-1,3.5E0,2.962981E-1,8.5E0,1.3990879E-1,2.1544611E-1,1.8209785E-1,1.9516376E-1,2.3952192E-1,2.608745E-1,1.7191279E-1,2.9925373E-1,2.924338E-1,3.30581E-1,1.880442E-1,3.2000226E-1,2.6865256E-1,3.726852E-1,1.470101E-2,5.877271E-2,1.2703684E-1,2.1819335E-1,6.5E0,3.5E0,8.565903E-4,9.5E0,2.1544054E-1,2.5052303E-1,2.4048193E-1,2.6490194E-1,4.5161594E-2,1.2793316E-1,1.6137062E-1,2.6494682E-1,3.0534548E-1,1.22365646E-1,1.1353926E-1,2.7554762E-1,3.2282353E-3,7.684236E-2,5.1940907E-2,-1.1988831E-2,9.36688E-2,6.516037E-2,3.3916354E-2,1.172638E-2,1.3315833E-1,8.7326944E-2,1.3830559E-1,1.11211635E-1,6.494606E-2,1.232072E-1,1.8036844E-3,7.003244E-2,1.2604521E-1,4.9097262E-2],"split_indices":[1,0,0,1,1,1,1,1,0,0,0,1,0,1,0,1,1,1,1,1,1,0,1,0,1,0,1,0,1,0,0,0,1,0,0,0,0,1,1,1,1,0,0,0,0,1,0,0,0,0,0,0,0,0,0,0,0,0,0,0,0,0,0,0,0,0,0],"split_type":[0,0,0,0,0,0,0,0,0,0,0,0,0,0,0,0,0,0,0,0,0,0,0,0,0,0,0,0,0,0,0,0,0,0,0,0,0,0,0,0,0,0,0,0,0,0,0,0,0,0,0,0,0,0,0,0,0,0,0,0,0,0,0,0,0,0,0],"sum_hessian":[6.1E2,4.11E2,1.99E2,5.5E1,3.56E2,6.4E1,1.35E2,3E1,2.5E1,8.8E1,2.68E2,3E1,3.4E1,1.07E2,2.8E1,6E0,2.4E1,8.2E1,6E0,1.85E2,8.3E1,1.4E1,1.6E1,1.3E1,2.1E1,1.4E1,9.3E1,1.1E1,1.7E1,1E0,5E0,2E1,4E0,2.8E1,5.4E1,1E0,5E0,7.1E1,1.14E2,5.1E1,3.2E1,4E0,1.2E1,1.4E1,7E0,4.4E1,4.9E1,1.2E1,5E0,1E0,3E0,2.7E1,1E0,2E1,3.4E1,3E0,2E0,1.6E1,5.5E1,2.4E1,9E1,2.8E1,2.3E1,5E0,2.7E1,1.5E1,2.9E1],"tree_param":{"num_deleted":"0","num_feature":"2","num_nodes":"67","size_leaf_vector":"0"}},{"base_weights":[2.8798175E-1,2.4161938E-1,3.849142E-1,3.6533654E-1,2.217585E-1,6.4617455E-1,3.5969275E-1,2.2783946E-1,4.476041E-1,1.513283E-1,2.4127126E-1,4.134298E-1,7.444784E-1,3.1980792E-1,5.497862E-1,2.4432996E-1,8.842707E-2,3.5772467E-1,5.376031E-1,1.6505182E-1,9.785933E-2,2.7275538E-1,1.9611847E-1,4.9264756E-1,1.4359029E-1,4.2049968E-1,2.721445E-1,7.581332E-1,4.5341393E-1,1.23473406E-1,2.763839E-1,-2.1048546E-2,1.3193512E-1,1.3622126E-1,2.5622872E-1,-5.305443E-2,1.4163996E-1,2.56152E-1,3.3040044E-1,7.965889E-2,2.1088776E-1,3.4197164E-1,5.9957516E-1,4.716408E-1,2.4165943E-1,2.548181E-1,6.861067E-1,1.3952856E-1,2.1598816E-2,1.6231765E-1,7.601544E-2,3.4778458E-1,1.4408875E-1,-8.1317425E-2,2.999878E-2,7.83468E-2,1.751302E-1,2.8646353E-1,1.574552E-1,1.2877941E-1,3.5376957E-1,3.6688667E-2,1.0422918E-1,2.313033E-1,1.3995963E-1,1.3957119E-1,3.500089E-1,1.5519157E-1,2.7976638E-1],"categories":[],"categories_nodes":[],"categories_segments":[],"categories_sizes":[],"default_left":[1,1,1,1,1,1,1,1,1,1,1,1,0,1,1,1,1,0,0,1,1,1,1,0,0,1,1,0,1,1,0,0,0,1,1,1,1,1,1,1,1,1,0,0,1,0,0,0,0,0,0,0,0,0,0,0,0,0,0,0,0,0,0,0,0,0,0,0,0],"id":11,"left_children":[1,3,5,7,9,11,13,15,17,19,21,23,-1,25,27,29,31,-1,-1,33,35,37,39,-1,-1,41,43,-1,45,47,-1,-1,-1,49,51,53,55,57,59,61,63,65,-1,-1,67,-1,-1,-1,-1,-1,-1,-1,-1,-1,-1,-1,-1,-1,-1,-1,-1,-1,-1,-1,-1,-1,-1,-1,-1],"loss_changes":[2.6528397E0,9.4115067E-1,1.0590935E0,5.314646E-1,4.5960808E-1,5.8285713E-2,1.1964874E0,3.127122E-2,8.271456E-2,4.3284535E-2,3.4597778E-1,7.8893065E-2,0E0,6.150589E-1,2.5861835E-1,4.3352485E-2,2.1829326E-2,0E0,0E0,1.3070321E-1,1.330495E-1,7.137585E-2,1.8788338E-1,0E0,0E0,4.5589638E-1,5.306792E-1,0E0,8.880391E-1,6.8000257E-3,0E0,0E0,0E0,6.621915E-2,9.3627155E-2,1.4176086E-2,1.8074691E-2,3.4680176E-1,1.0992813E-1,1.2012832E-2,1.1967039E-1,8.084774E-3,0E0,0E0,2.6631546E-1,0E0,0E0,0E0,0E0,0E0,0E0,0E0,0E0,0E0,0E0,0E0,0E0,0E0,0E0,0E0,0E0,0E0,0E0,0E0,0E0,0E0,0E0,0E0,0E0],"parents":[2147483647,0,0,1,1,2,2,3,3,4,4,5,5,6,6,7,7,8,8,9,9,10,10,11,11,13,13,14,14,15,15,16,16,19,19,20,20,21,21,22,22,25,25,26,26,28,28,29,29,33,33,34,34,35,35,36,36,37,37,38,38,39,39,40,40,41,41,44,44],"right_children":[2,4,6,8,10,12,14,16,18,20,22,24,-1,26,28,30,32,-1,-1,34,36,38,40,-1,-1,42,44,-1,46,48,-1,-1,-1,50,52,54,56,58,60,62,64,66,-1,-1,68,-1,-1,-1,-1,-1,-1,-1,-1,-1,-1,-1,-1,-1,-1,-1,-1,-1,-1,-1,-1,-1,-1,-1,-1],"split_conditions":[2.905586E-1,1.5E0,2.5E0,2.054891E-1,2.0654106E-1,3.0075377E-1,3.498572E-1,1.97707E-1,2.5424185E-1,1.9900551E-1,6.5E0,2.977686E-1,2.2334354E-1,5.5E0,7.5E0,1.6046911E-1,2.0033891E-1,1.073174E-1,1.6128093E-1,1.9386157E-1,2.0067114E-1,5.5E0,2.2018424E-1,1.4779428E-1,4.307709E-2,3.2345247E-1,2.962981E-1,2.2743995E-1,3.669759E-1,1.5528324E-1,8.291517E-2,-6.314564E-3,3.958054E-2,4.5E0,4.5E0,5E0,4.5E0,4.5E0,2.177923E-1,2.1314454E-1,9.5E0,2.9197252E-1,1.7987256E-1,1.4149225E-1,3.1331807E-1,7.644544E-2,2.0583202E-1,4.185857E-2,6.479645E-3,4.8695296E-2,2.2804633E-2,1.04335375E-1,4.3226626E-2,-2.439523E-2,8.9996345E-3,2.350404E-2,5.253906E-2,8.5939065E-2,4.7236566E-2,3.8633823E-2,1.06130876E-1,1.10066E-2,3.1268757E-2,6.9391E-2,4.1987892E-2,4.1871358E-2,1.0500268E-1,4.655747E-2,8.392992E-2],"split_indices":[1,0,0,1,1,1,1,1,1,1,0,1,0,0,0,1,1,0,0,1,1,0,1,0,0,1,1,0,1,1,0,0,0,0,0,0,0,0,1,1,0,1,0,0,1,0,0,0,0,0,0,0,0,0,0,0,0,0,0,0,0,0,0,0,0,0,0,0,0],"split_type":[0,0,0,0,0,0,0,0,0,0,0,0,0,0,0,0,0,0,0,0,0,0,0,0,0,0,0,0,0,0,0,0,0,0,0,0,0,0,0,0,0,0,0,0,0,0,0,0,0,0,0,0,0,0,0,0,0,0,0,0,0,0,0,0,0,0,0,0,0],"sum_hessian":[6.1E2,4.15E2,1.95E2,5.5E1,3.6E2,1.5E1,1.8E2,2.2E1,3.3E1,8E1,2.8E2,6E0,9E0,1.51E2,2.9E1,1.9E1,3E0,1.9E1,1.4E1,6.2E1,1.8E1,1.62E2,1.18E2,4E0,2E0,4.6E1,1.05E2,7E0,2.2E1,5E0,1.4E1,1E0,2E0,4.9E1,1.3E1,4E0,1.4E1,1.3E2,3.2E1,1.4E1,1.04E2,3.4E1,1.2E1,1.2E1,9.3E1,1.3E1,9E0,4E0,1E0,3.3E1,1.6E1,6E0,7E0,3E0,1E0,6E0,8E0,9.8E1,3.2E1,4E0,2.8E1,6E0,8E0,7.9E1,2.5E1,2E0,3.2E1,3E1,6.3E1],"tree_param":{"num_deleted":"0","num_feature":"2","num_nodes":"69","size_leaf_vector":"0"}},{"base_weights":[2.0595235E-1,1.8085402E-1,3.0609548E-1,2.8584254E-1,1.6585363E-1,5.412249E-1,2.6245677E-1,2.1535137E-1,4.3835798E-1,1.3352671E-1,1.9445933E-1,1.9529264E-1,3.892863E-1,1.2079889E-1,2.4034306E-1,5.798812E-2,1.4045069E-1,2.0865974E-1,6.565348E-2,2.1475004E-1,1.0212374E-1,5.713704E-1,3.1417358E-1,1.4820173E-1,-1.6759237E-3,8.584844E-2,-2.0365033E-3,1.7781149E-1,1.24466E-1,3.419917E-1,1.9470981E-1,2.2056788E-1,-6.0754504E-2,3.8164616E-2,2.1722184E-1,1.2521927E-1,-2.4299622E-2,2.1435383E-1,5.687509E-1,4.6584446E-2,1.7058031E-1,-4.1256905E-2,3.874302E-2,1.1549129E-1,-9.720802E-3,-4.7032356E-2,4.3468475E-2,1.9803303E-1,3.6783457E-2,1.3723685E-1,9.395078E-2,2.3377812E-2,2.1060416E-1,1.13659665E-1,2.6542118E-1,-1.184514E-1,6.67902E-2,1.939266E-1,2.6333952E-1,-1.3507208E-3,1.5066834E-1,-5.8224678E-2,2.1775246E-2],"categories":[],"categories_nodes":[],"categories_segments":[],"categories_sizes":[],"default_left":[1,1,1,1,1,0,1,1,0,1,1,1,1,1,0,1,1,1,1,1,1,0,1,1,1,1,1,1,1,0,1,1,1,0,1,1,1,0,0,0,0,0,0,0,0,0,0,0,0,0,0,0,0,0,0,0,0,0,0,0,0,0,0],"id":12,"left_children":[1,3,5,7,9,-1,11,13,-1,15,17,19,21,23,-1,25,27,29,31,33,35,-1,37,39,41,43,45,47,49,-1,51,53,55,-1,57,59,61,-1,-1,-1,-1,-1,-1,-1,-1,-1,-1,-1,-1,-1,-1,-1,-1,-1,-1,-1,-1,-1,-1,-1,-1,-1,-1],"loss_changes":[1.4803448E0,7.2585297E-1,1.0995007E0,5.506587E-1,3.735199E-1,0E0,8.0988836E-1,7.257688E-2,0E0,9.959912E-2,4.0150452E-1,1.0496664E-1,2.991805E-1,3.7166104E-2,0E0,3.194864E-2,9.014201E-2,3.1284428E-1,4.8337853E-1,1.6589403E-2,4.392019E-2,0E0,5.642059E-1,1.2520075E-2,6.397881E-3,3.7950963E-2,1.6377172E-2,1.4671326E-1,3.971672E-2,0E0,5.043168E-1,2.2579372E-2,1.1093647E-1,0E0,9.093523E-3,3.885655E-2,5.957134E-3,0E0,0E0,0E0,0E0,0E0,0E0,0E0,0E0,0E0,0E0,0E0,0E0,0E0,0E0,0E0,0E0,0E0,0E0,0E0,0E0,0E0,0E0,0E0,0E0,0E0,0E0],"parents":[2147483647,0,0,1,1,2,2,3,3,4,4,6,6,7,7,9,9,10,10,11,11,12,12,13,13,15,15,16,16,17,17,18,18,19,19,20,20,22,22,23,23,24,24,25,25,26,26,27,27,28,28,30,30,31,31,32,32,34,34,35,35,36,36],"right_children":[2,4,6,8,10,-1,12,14,-1,16,18,20,22,24,-1,26,28,30,32,34,36,-1,38,40,42,44,46,48,50,-1,52,54,56,-1,58,60,62,-1,-1,-1,-1,-1,-1,-1,-1,-1,-1,-1,-1,-1,-1,-1,-1,-1,-1,-1,-1,-1,-1,-1,-1,-1,-1],"split_conditions":[3.1169042E-1,1.5E0,4.5E0,2.5696993E-1,2.453998E-1,1.6236748E-1,3.4582418E-1,1.7468174E-1,1.315074E-1,1.7493306E-1,3.0534548E-1,9.5E0,7.5E0,1.6926089E-1,7.210292E-2,3.5E0,3.5E0,2.5052303E-1,5.5E0,3.1331807E-1,3.409201E-1,1.7141113E-1,3.7152058E-1,1.4496899E-1,1.7193247E-1,1.6998395E-1,4.5E0,2.3575729E-1,2.2944635E-1,1.0259751E-1,2.547782E-1,3.077004E-1,3.1007957E-1,1.1449385E-2,3.3426446E-1,3.1662488E-1,3.438424E-1,6.4306155E-2,1.7062528E-1,1.3975334E-2,5.1174097E-2,-1.2377072E-2,1.1622906E-2,3.464739E-2,-2.9162408E-3,-1.4109707E-2,1.30405435E-2,5.9409913E-2,1.1035037E-2,4.1171055E-2,2.8185235E-2,7.0133437E-3,6.318125E-2,3.4097902E-2,7.962636E-2,-3.553542E-2,2.003706E-2,5.817798E-2,7.900186E-2,-4.0521624E-4,4.5200504E-2,-1.7467404E-2,6.532574E-3],"split_indices":[1,0,0,1,1,0,1,1,0,1,1,0,0,1,0,0,0,1,0,1,1,0,1,1,1,1,0,1,1,0,1,1,1,0,1,1,1,0,0,0,0,0,0,0,0,0,0,0,0,0,0,0,0,0,0,0,0,0,0,0,0,0,0],"split_type":[0,0,0,0,0,0,0,0,0,0,0,0,0,0,0,0,0,0,0,0,0,0,0,0,0,0,0,0,0,0,0,0,0,0,0,0,0,0,0,0,0,0,0,0,0,0,0,0,0,0,0,0,0,0,0,0,0,0,0,0,0,0,0],"sum_hessian":[6.1E2,4.9E2,1.2E2,5.9E1,4.31E2,1.7E1,1.03E2,4.2E1,1.7E1,2.05E2,2.26E2,6.9E1,3.4E1,1E1,3.2E1,1.8E1,1.87E2,2.03E2,2.3E1,5.6E1,1.3E1,8E0,2.6E1,8E0,2E0,1.2E1,6E0,5.3E1,1.34E2,1.7E1,1.86E2,1E1,1.3E1,1E0,5.5E1,1.1E1,2E0,2E1,6E0,2E0,6E0,1E0,1E0,9E0,3E0,3E0,3E0,4.6E1,7E0,9.2E1,4.2E1,1.6E1,1.7E2,4E0,6E0,9E0,4E0,4E1,1.5E1,2E0,9E0,1E0,1E0],"tree_param":{"num_deleted":"0","num_feature":"2","num_nodes":"63","size_leaf_vector":"0"}},{"base_weights":[1.4655742E-1,1.1900701E-1,2.0428401E-1,1.659407E-1,1.0221786E-1,4.768903E-1,1.9316545E-1,1.016794E-1,2.0078869E-1,6.621618E-2,1.13272786E-1,1.8010147E-1,3.7193933E-1,1.1900878E-1,-4.342804E-2,1.7028843E-1,2.5438538E-1,-4.9616814E-2,7.173167E-2,1.3666563E-1,7.475372E-2,2.1813546E-1,1.2919597E-1,4.5537105E-1,2.1261247E-1,9.402167E-2,2.2827403E-1,-7.389101E-2,1.510938E-3,2.6483032E-1,1.37579E-1,2.6040506E-1,6.097603E-2,9.489765E-2,3.6136054E-2,1.1948329E-1,3.351157E-1,-1.2003284E-1,9.49745E-2,1.8055272E-1,3.6131793E-1,1.8762742E-1,1.101482E-1,3.831339E-2,3.741404E-1,1.108623E-1,4.757013E-2,3.109932E-3,-8.4352493E-4,1.7290102E-1,3.405653E-1,-6.6000365E-2,1.6425529E-1,8.162581E-2,1.5149198E-1,4.0023327E-3,5.452914E-2,2.1315312E-1,1.0945489E-1,6.815497E-2,-1.8353721E-1,1.2281461E-1,4.4313215E-2,2.8835982E-1,1.5411654E-1,4.5152193E-1,1.6957164E-1,4.2317707E-2,2.0314628E-1,-1.1066425E-1,1.4026368E-1],"categories":[],"categories_nodes":[],"categories_segments":[],"categories_sizes":[],"default_left":[1,1,1,1,1,0,1,1,1,1,1,1,1,1,1,1,1,0,1,1,1,1,1,0,1,1,0,0,1,1,1,0,0,1,1,1,0,1,1,1,1,1,1,0,0,0,0,0,0,0,0,0,0,0,0,0,0,0,0,0,0,0,0,0,0,0,0,0,0,0,0],"id":13,"left_children":[1,3,5,7,9,-1,11,13,15,17,19,21,23,25,27,29,31,-1,33,35,37,39,41,-1,43,45,-1,-1,47,49,51,-1,-1,53,55,57,-1,59,61,63,65,67,69,-1,-1,-1,-1,-1,-1,-1,-1,-1,-1,-1,-1,-1,-1,-1,-1,-1,-1,-1,-1,-1,-1,-1,-1,-1,-1,-1,-1],"loss_changes":[9.4741917E-1,3.1083632E-1,5.0195503E-1,2.214365E-1,1.1548042E-1,0E0,3.767581E-1,1.0575324E-1,6.9476604E-2,5.147487E-2,2.0153499E-1,3.1838608E-1,6.269729E-2,7.682526E-2,6.9565168E-3,1.0890818E-1,1.0899663E-2,0E0,5.5942506E-2,4.5438576E-1,3.6982512E-1,4.7826338E-1,6.725943E-2,0E0,1.5459046E-1,1.8976718E-2,0E0,0E0,1.3917621E-5,1.7700851E-2,2.117784E-1,0E0,0E0,1.9932061E-2,1.7512906E-2,1.03482485E-1,0E0,1.20065704E-1,1.11622214E-1,1.8925953E-1,2.693603E-1,3.1994045E-2,4.2781436E-1,0E0,0E0,0E0,0E0,0E0,0E0,0E0,0E0,0E0,0E0,0E0,0E0,0E0,0E0,0E0,0E0,0E0,0E0,0E0,0E0,0E0,0E0,0E0,0E0,0E0,0E0,0E0,0E0],"parents":[2147483647,0,0,1,1,2,2,3,3,4,4,6,6,7,7,8,8,9,9,10,10,11,11,12,12,13,13,14,14,15,15,16,16,18,18,19,19,20,20,21,21,22,22,24,24,25,25,28,28,29,29,30,30,33,33,34,34,35,35,37,37,38,38,39,39,40,40,41,41,42,42],"right_children":[2,4,6,8,10,-1,12,14,16,18,20,22,24,26,28,30,32,-1,34,36,38,40,42,-1,44,46,-1,-1,48,50,52,-1,-1,54,56,58,-1,60,62,64,66,68,70,-1,-1,-1,-1,-1,-1,-1,-1,-1,-1,-1,-1,-1,-1,-1,-1,-1,-1,-1,-1,-1,-1,-1,-1,-1,-1,-1,-1],"split_conditions":[2.905586E-1,2.5E0,1.5E0,2.0305091E-1,2.1164086E-1,1.4306709E-1,3.6474502E-1,1.9835198E-1,2.6258332E-1,1.6174386E-1,2.6030493E-1,7.5E0,9.5E0,1.9138804E-1,2.0033891E-1,2.1583013E-1,2.8915828E-1,-1.4885045E-2,5.5E0,2.569605E-1,2.6373756E-1,3.3241254E-1,3.0534548E-1,1.3661133E-1,3.785828E-1,1.7992017E-1,6.848221E-2,-2.2167303E-2,1.5E0,2.1090218E-1,2.2140524E-1,7.812152E-2,1.8292809E-2,2.0583735E-1,1.9544181E-1,2.1544054E-1,1.00534715E-1,4.5E0,7.5E0,2.962981E-1,6.5E0,2.9197252E-1,3.1169042E-1,1.1494017E-2,1.12242125E-1,3.325869E-2,1.427104E-2,9.3297963E-4,-2.530575E-4,5.187031E-2,1.02169596E-1,-1.980011E-2,4.927659E-2,2.4487745E-2,4.5447595E-2,1.2006998E-3,1.6358742E-2,6.394594E-2,3.283647E-2,2.044649E-2,-5.5061165E-2,3.6844384E-2,1.3293965E-2,8.6507946E-2,4.6234965E-2,1.3545659E-1,5.0871495E-2,1.26953125E-2,6.0943887E-2,-3.3199277E-2,4.2079106E-2],"split_indices":[1,0,0,1,1,0,1,1,1,1,1,0,0,1,1,1,1,0,0,1,1,1,1,0,1,1,0,0,0,1,1,0,0,1,1,1,0,0,0,1,0,1,1,0,0,0,0,0,0,0,0,0,0,0,0,0,0,0,0,0,0,0,0,0,0,0,0,0,0,0,0],"split_type":[0,0,0,0,0,0,0,0,0,0,0,0,0,0,0,0,0,0,0,0,0,0,0,0,0,0,0,0,0,0,0,0,0,0,0,0,0,0,0,0,0,0,0,0,0,0,0,0,0,0,0,0,0,0,0,0,0,0,0,0,0,0,0,0,0,0,0,0,0,0,0],"sum_hessian":[6.1E2,4.15E2,1.95E2,1.07E2,3.08E2,6E0,1.89E2,3.9E1,6.8E1,7.4E1,2.34E2,1.78E2,1.1E1,3.5E1,4E0,4.6E1,2.2E1,3E0,7.1E1,1.44E2,9E1,1E2,7.8E1,6E0,5E0,3E1,5E0,2E0,2E0,1E1,3.6E1,2.1E1,1E0,4.2E1,2.9E1,1.34E2,1E1,8E0,8.2E1,8.1E1,1.9E1,1.7E1,6.1E1,3E0,2E0,2.1E1,9E0,1E0,1E0,6E0,4E0,4E0,3.2E1,3.6E1,6E0,1.1E1,1.8E1,1.1E1,1.23E2,2E0,6E0,5.2E1,3E1,1.4E1,6.7E1,1.2E1,7E0,2E0,1.5E1,7E0,5.4E1],"tree_param":{"num_deleted":"0","num_feature":"2","num_nodes":"71","size_leaf_vector":"0"}},{"base_weights":[1.04987785E-1,8.401216E-2,1.4581846E-1,1.3630486E-1,7.5602755E-2,3.5399604E-1,1.3671675E-1,9.618632E-2,1.7735298E-1,8.381299E-2,3.4249403E-2,1.2898934E-1,3.3024135E-1,1.128101E-1,-4.0070772E-2,2.9088598E-2,9.041104E-2,5.5087946E-2,-7.073993E-3,1.4276768E-1,5.2381024E-2,8.674808E-2,2.1013336E-1,-6.542206E-2,1.7991543E-2,3.4157395E-2,-6.655645E-2,9.4574116E-2,4.7328644E-2,1.3548569E-2,1.3126476E-1,-6.270586E-2,9.116602E-2,1.143878E-1,1.779305E-1,1.0804939E-1,3.164236E-2,9.806438E-2,8.479595E-3,-1.2674093E-2,3.943907E-2,8.596261E-2,1.5337516E-1,-6.378692E-2,8.577497E-2,2.762077E-2,-3.0603545E-2,8.746214E-2,1.9261703E-1,-9.857488E-2,-4.3962047E-2,2.1889687E-2,9.793554E-2,1.754206E-1,8.676195E-2,3.406235E-1,1.4567554E-1,4.5742035E-2,1.2119484E-1,-7.707043E-2,5.7238437E-2],"categories":[],"categories_nodes":[],"categories_segments":[],"categories_sizes":[],"default_left":[1,1,1,1,1,0,1,1,0,1,1,1,0,1,1,1,1,1,1,1,1,1,0,0,0,1,0,1,1,1,1,1,1,1,1,1,1,0,0,0,0,0,0,0,0,0,0,0,0,0,0,0,0,0,0,0,0,0,0,0,0],"id":14,"left_children":[1,3,5,7,9,-1,11,13,-1,15,17,19,-1,21,23,25,27,29,31,33,35,37,-1,-1,-1,39,-1,41,43,45,47,49,51,53,55,57,59,-1,-1,-1,-1,-1,-1,-1,-1,-1,-1,-1,-1,-1,-1,-1,-1,-1,-1,-1,-1,-1,-1,-1,-1],"loss_changes":[5.1103926E-1,1.6823387E-1,3.4192562E-1,7.351458E-2,1.16640806E-1,0E0,2.5499535E-1,7.2473645E-2,0E0,1.0316467E-1,5.2056856E-2,1.9623995E-1,0E0,5.025524E-2,7.064861E-3,1.827197E-2,4.233575E-2,1.2479503E-1,1.20487414E-1,1.4230752E-1,3.237018E-2,1.9539759E-2,0E0,0E0,0E0,8.415014E-3,0E0,1.0682416E-1,1.12270966E-1,1.7620865E-2,2.0776793E-2,5.07896E-3,1.607962E-3,1.4158583E-1,3.2296324E-1,1.0087639E-3,7.119429E-2,0E0,0E0,0E0,0E0,0E0,0E0,0E0,0E0,0E0,0E0,0E0,0E0,0E0,0E0,0E0,0E0,0E0,0E0,0E0,0E0,0E0,0E0,0E0,0E0],"parents":[2147483647,0,0,1,1,2,2,3,3,4,4,6,6,7,7,9,9,10,10,11,11,13,13,14,14,15,15,16,16,17,17,18,18,19,19,20,20,21,21,25,25,27,27,28,28,29,29,30,30,31,31,32,32,33,33,34,34,35,35,36,36],"right_children":[2,4,6,8,10,-1,12,14,-1,16,18,20,-1,22,24,26,28,30,32,34,36,38,-1,-1,-1,40,-1,42,44,46,48,50,52,54,56,58,60,-1,-1,-1,-1,-1,-1,-1,-1,-1,-1,-1,-1,-1,-1,-1,-1,-1,-1,-1,-1,-1,-1,-1,-1],"split_conditions":[2.8777143E-1,1.5E0,1.5E0,2.2347066E-1,8.5E0,1.0619882E-1,3.7152058E-1,2.1544611E-1,5.3205896E-2,1.8518695E-1,2.608745E-1,9.5E0,9.907241E-2,2.054891E-1,2.2100122E-1,6.5E0,2.797218E-1,2.4390647E-1,2.784238E-1,3.2000226E-1,3.061304E-1,1.97707E-1,6.304001E-2,-1.9626617E-2,5.397463E-3,1.5425795E-1,-1.9966938E-2,2.684577E-1,2.81032E-1,2.3529774E-1,2.558647E-1,2.6490194E-1,2.797218E-1,2.962981E-1,4.5E0,2.9268992E-1,3.1662488E-1,2.9419314E-2,2.5438787E-3,-3.802228E-3,1.1831722E-2,2.5788784E-2,4.601255E-2,-1.9136075E-2,2.5732493E-2,8.286231E-3,-9.181064E-3,2.6238644E-2,5.7785112E-2,-2.9572465E-2,-1.31886145E-2,6.5669063E-3,2.9380664E-2,5.262618E-2,2.6028587E-2,1.0218705E-1,4.3702662E-2,1.3722611E-2,3.6358453E-2,-2.312113E-2,1.7171532E-2],"split_indices":[1,0,0,1,0,0,1,1,0,1,1,0,0,1,1,0,1,1,1,1,1,1,0,0,0,1,0,1,1,1,1,1,1,1,0,1,1,0,0,0,0,0,0,0,0,0,0,0,0,0,0,0,0,0,0,0,0,0,0,0,0],"split_type":[0,0,0,0,0,0,0,0,0,0,0,0,0,0,0,0,0,0,0,0,0,0,0,0,0,0,0,0,0,0,0,0,0,0,0,0,0,0,0,0,0,0,0,0,0,0,0,0,0,0,0,0,0,0,0,0,0,0,0,0,0],"sum_hessian":[6.1E2,4.05E2,2.05E2,5.4E1,3.51E2,7E0,1.98E2,2.9E1,2.5E1,2.92E2,5.9E1,1.92E2,6E0,2.6E1,3E0,3.2E1,2.6E2,3.9E1,2E1,1.62E2,3E1,2.2E1,4E0,2E0,1E0,3.1E1,1E0,2.36E2,2.4E1,2.6E1,1.3E1,1.3E1,7E0,9.2E1,7E1,7E0,2.3E1,1.9E1,3E0,3E0,2.8E1,2.08E2,2.8E1,6E0,1.8E1,2E1,6E0,9E0,4E0,3E0,1E1,1E0,6E0,2.7E1,6.5E1,1E1,6E1,2E0,5E0,4E0,1.9E1],"tree_param":{"num_deleted":"0","num_feature":"2","num_nodes":"61","size_leaf_vector":"0"}},{"base_weights":[7.472015E-2,6.891227E-2,1.6833234E-1,1.0564682E-1,5.8830377E-2,2.5004578E-1,1.0194978E-1,9.1734916E-2,3.6163965E-1,3.655479E-2,7.0904575E-2,2.878187E-1,1.6575977E-1,5.5176947E-2,2.869401E-1,7.352364E-2,1.4047226E-1,4.7518793E-2,7.5758423E-4,1.5227714E-1,6.2775984E-2,4.0089607E-2,2.4998999E-1,1.06349945E-1,3.6035539E-3,4.3845005E-2,8.5941315E-2,1.7626597E-1,1.006265E-1,3.4216166E-2,2.1369499E-1,-6.24094E-2,1.9071948E-2,9.693103E-2,2.4604967E-1,-9.595462E-2,6.676206E-2,8.238983E-2,-1.4737447E-3,1.36362715E-2,1.3089153E-1,-6.1132908E-2,4.0081024E-2,5.9650075E-2,-1.2091637E-2,1.1652316E-1,6.5702245E-2,1.4097224E-1,4.9100026E-2,4.8363283E-2,1.6487265E-2,8.715582E-2,-9.199953E-2,8.2035065E-2,-6.3950084E-3,1.2098948E-3,1.0882056E-1,2.6097918E-1,6.330681E-2,-1.8105721E-1,1.3136625E-2,1.3166007E-1,5.908692E-2,-2.8351784E-2,2.6141167E-2,-1.954174E-2,3.9996147E-2,1.6861248E-1,6.0447693E-2,6.5660477E-3,-8.588791E-2,7.380247E-2,-3.6606789E-3],"categories":[],"categories_nodes":[],"categories_segments":[],"categories_sizes":[],"default_left":[1,1,1,1,1,1,1,1,0,1,1,0,1,1,0,1,1,1,1,1,1,1,0,1,1,1,1,0,1,1,0,1,1,1,1,1,1,0,1,1,1,1,1,0,0,0,0,0,0,0,0,0,0,0,0,0,0,0,0,0,0,0,0,0,0,0,0,0,0,0,0,0,0],"id":15,"left_children":[1,3,5,7,9,11,13,15,-1,17,19,-1,21,23,-1,25,27,29,31,33,35,37,-1,39,41,43,45,-1,47,49,-1,51,53,55,57,59,61,-1,63,65,67,69,71,-1,-1,-1,-1,-1,-1,-1,-1,-1,-1,-1,-1,-1,-1,-1,-1,-1,-1,-1,-1,-1,-1,-1,-1,-1,-1,-1,-1,-1,-1],"loss_changes":[3.205936E-1,2.0747876E-1,1.6435987E-1,4.048705E-1,1.1978495E-1,4.720688E-5,1.658705E-1,9.4405174E-2,0E0,6.354587E-2,1.8490529E-1,0E0,6.407459E-2,4.7121737E-2,0E0,2.8663397E-2,2.6476085E-2,2.6680008E-1,4.6307933E-2,1.1108869E-1,1.766057E-1,7.1539776E-3,0E0,1.8693194E-2,2.6064493E-2,2.547558E-2,3.0099988E-2,0E0,2.8419122E-2,2.8296903E-2,0E0,4.784918E-2,5.0232463E-2,2.0353764E-2,8.03262E-3,6.736612E-2,1.2322128E-1,0E0,2.9678529E-3,3.405299E-3,8.408226E-3,7.2674947E-3,1.0595402E-2,0E0,0E0,0E0,0E0,0E0,0E0,0E0,0E0,0E0,0E0,0E0,0E0,0E0,0E0,0E0,0E0,0E0,0E0,0E0,0E0,0E0,0E0,0E0,0E0,0E0,0E0,0E0,0E0,0E0,0E0],"parents":[2147483647,0,0,1,1,2,2,3,3,4,4,5,5,6,6,7,7,9,9,10,10,12,12,13,13,15,15,16,16,17,17,18,18,19,19,20,20,21,21,23,23,24,24,25,25,26,26,28,28,29,29,31,31,32,32,33,33,34,34,35,35,36,36,38,38,39,39,40,40,41,41,42,42],"right_children":[2,4,6,8,10,12,14,16,-1,18,20,-1,22,24,-1,26,28,30,32,34,36,38,-1,40,42,44,46,-1,48,50,-1,52,54,56,58,60,62,-1,64,66,68,70,72,-1,-1,-1,-1,-1,-1,-1,-1,-1,-1,-1,-1,-1,-1,-1,-1,-1,-1,-1,-1,-1,-1,-1,-1,-1,-1,-1,-1,-1,-1],"split_conditions":[3.4582418E-1,2.5E0,8.5E0,3.1169042E-1,2.4144967E-1,7.5E0,3.773734E-1,2.6490194E-1,1.084919E-1,2.2944635E-1,2.5052303E-1,8.634561E-2,3.5929433E-1,3.5608622E-1,8.6082034E-2,1.8779758E-1,1.5E0,2.2684392E-1,2.3210919E-1,2.4742374E-1,2.521053E-1,3.49881E-1,7.4997E-2,3.4782898E-1,3.614589E-1,1.7992017E-1,2.1583013E-1,5.287979E-2,2.8572077E-1,5.5E0,6.41085E-2,3.5E0,2.3483455E-1,3.5E0,9.5E0,5.5E0,2.6030493E-1,2.4716951E-2,3.5504204E-1,9.5E0,3.519092E-1,3.5821217E-1,9.5E0,1.7895022E-2,-3.6274912E-3,3.495695E-2,1.9710675E-2,4.2291675E-2,1.4730008E-2,1.4508986E-2,4.9461797E-3,2.6146747E-2,-2.759986E-2,2.4610521E-2,-1.9185026E-3,3.6296845E-4,3.2646168E-2,7.8293756E-2,1.8992044E-2,-5.4317165E-2,3.940988E-3,3.9498024E-2,1.7726077E-2,-8.505535E-3,7.842351E-3,-5.8625224E-3,1.1998844E-2,5.0583746E-2,1.8134309E-2,1.9698143E-3,-2.5766375E-2,2.2140741E-2,-1.0982037E-3],"split_indices":[1,0,0,1,1,0,1,1,0,1,1,0,1,1,0,1,0,1,1,1,1,1,0,1,1,1,1,0,1,0,0,0,1,0,0,0,1,0,1,0,1,1,0,0,0,0,0,0,0,0,0,0,0,0,0,0,0,0,0,0,0,0,0,0,0,0,0,0,0,0,0,0,0],"split_type":[0,0,0,0,0,0,0,0,0,0,0,0,0,0,0,0,0,0,0,0,0,0,0,0,0,0,0,0,0,0,0,0,0,0,0,0,0,0,0,0,0,0,0,0,0,0,0,0,0,0,0,0,0,0,0,0,0,0,0,0,0,0,0,0,0,0,0,0,0,0,0,0,0],"sum_hessian":[6.1E2,5.76E2,3.4E1,1.22E2,4.54E2,1.4E1,2E1,1.17E2,5E0,1.61E2,2.93E2,8E0,6E0,1.7E1,3E0,8.7E1,3E1,1.23E2,3.8E1,2.5E1,2.68E2,3E0,3E0,8E0,9E0,2.7E1,6E1,1.4E1,1.6E1,1.15E2,8E0,8E0,3E1,1.7E1,8E0,6E0,2.62E2,1E0,2E0,2E0,6E0,3E0,6E0,2.1E1,6E0,2.2E1,3.8E1,8E0,8E0,6.3E1,5.2E1,1E0,7E0,8E0,2.2E1,2E0,1.5E1,7E0,1E0,3E0,3E0,2.6E1,2.36E2,1E0,1E0,1E0,1E0,3E0,3E0,1E0,2E0,3E0,3E0],"tree_param":{"num_deleted":"0","num_feature":"2","num_nodes":"73","size_leaf_vector":"0"}},{"base_weights":[5.373261E-2,4.0502056E-2,8.153964E-2,5.749007E-2,3.0088134E-2,1.4545979E-1,7.046683E-2,2.2811709E-2,6.761907E-2,4.225644E-2,1.673964E-3,8.744712E-2,2.7956057E-1,5.5119812E-2,1.2764914E-1,4.470804E-2,1.9644261E-3,1.18168026E-1,6.0969938E-2,3.134307E-2,1.6166909E-1,-8.369559E-2,3.2031365E-2,1.6113155E-1,5.435002E-2,1.3513274E-1,4.165515E-2,1.8739167E-1,7.889739E-2,2.5607622E-3,1.285758E-1,-6.2058132E-2,2.7442487E-2,6.542577E-2,1.8947048E-1,-8.2099505E-2,7.0101164E-2,1.8883107E-2,6.712475E-2,2.9296875E-3,2.1912618E-1,1.15333796E-1,-1.23274595E-1,8.94631E-2,1.3855809E-2,1.24262236E-1,2.069076E-2,1.8513044E-2,1.7546026E-1,-6.526089E-2,4.905218E-2,1.1416899E-1,2.2352134E-1,4.262956E-2,2.2237825E-1,1.67799E-2,-2.3545837E-2,-8.8246025E-2,-2.6902676E-2,8.719698E-2,-1.1154461E-2,-1.0849857E-1,-3.5175562E-2,1.3665466E-1,5.809663E-2,2.9847492E-2,-2.0558221E-2,1.1267402E-1,-2.5412178E-2,1.4953995E-1,-1.4465714E-1,2.4604851E-1,6.5317154E-2,-1.5100546E-1,-7.876534E-2,1.681445E-1,9.433985E-3,-5.9449196E-2,4.147667E-2,5.0218582E-2,1.5688515E-1,-3.9829254E-2,3.6777686E-2,-3.5037357E-2,5.4047585E-2,1.1580455E-1,2.1857248E-1,2.9589653E-2,-8.3038054E-2,1.3364907E-1,3.5322953E-2,2.1064472E-1,-1.0848999E-2,8.276219E-2,2.247238E-3],"categories":[],"categories_nodes":[],"categories_segments":[],"categories_sizes":[],"default_left":[1,1,1,1,1,1,1,1,1,1,1,1,0,1,1,1,1,1,1,1,1,1,1,0,1,1,1,1,1,1,0,1,1,0,0,1,1,1,1,1,1,0,1,1,1,1,1,1,1,1,1,1,0,1,0,0,0,0,0,0,0,0,0,0,0,0,0,0,0,0,0,0,0,0,0,0,0,0,0,0,0,0,0,0,0,0,0,0,0,0,0,0,0,0,0],"id":16,"left_children":[1,3,5,7,9,11,13,15,17,19,21,23,-1,25,27,29,31,33,35,37,39,41,43,-1,45,47,49,51,53,55,-1,57,59,-1,-1,61,63,65,67,69,71,-1,73,75,77,79,81,83,85,87,89,91,-1,93,-1,-1,-1,-1,-1,-1,-1,-1,-1,-1,-1,-1,-1,-1,-1,-1,-1,-1,-1,-1,-1,-1,-1,-1,-1,-1,-1,-1,-1,-1,-1,-1,-1,-1,-1,-1,-1,-1,-1,-1,-1],"loss_changes":[2.2148585E-1,7.186556E-2,1.2847376E-1,5.36049E-2,8.9824855E-2,1.9338053E-1,1.4127475E-1,1.68019E-2,3.3464193E-2,2.3211423E-1,2.0741712E-1,4.2456046E-2,0E0,1.3981289E-1,8.715463E-2,6.329711E-2,3.432644E-2,3.649223E-2,1.4815283E-1,7.36333E-2,1.3616857E-1,1.796428E-1,6.034779E-2,0E0,3.508002E-2,8.610842E-2,9.5731914E-2,1.4163494E-2,9.979865E-2,5.2208696E-3,0E0,3.1498317E-3,3.5567757E-2,0E0,0E0,4.8547424E-3,7.4352026E-2,5.51023E-2,1.8410785E-1,1.2982073E-1,2.947861E-2,0E0,1.0323048E-2,8.6568974E-2,9.560413E-2,4.199043E-3,1.3147799E-2,1.3311019E-2,1.0694772E-2,1.5946463E-2,1.2303856E-1,8.67137E-2,0E0,2.8985687E-2,0E0,0E0,0E0,0E0,0E0,0E0,0E0,0E0,0E0,0E0,0E0,0E0,0E0,0E0,0E0,0E0,0E0,0E0,0E0,0E0,0E0,0E0,0E0,0E0,0E0,0E0,0E0,0E0,0E0,0E0,0E0,0E0,0E0,0E0,0E0,0E0,0E0,0E0,0E0,0E0,0E0],"parents":[2147483647,0,0,1,1,2,2,3,3,4,4,5,5,6,6,7,7,8,8,9,9,10,10,11,11,13,13,14,14,15,15,16,16,17,17,18,18,19,19,20,20,21,21,22,22,24,24,25,25,26,26,27,27,28,28,29,29,31,31,32,32,35,35,36,36,37,37,38,38,39,39,40,40,42,42,43,43,44,44,45,45,46,46,47,47,48,48,49,49,50,50,51,51,53,53],"right_children":[2,4,6,8,10,12,14,16,18,20,22,24,-1,26,28,30,32,34,36,38,40,42,44,-1,46,48,50,52,54,56,-1,58,60,-1,-1,62,64,66,68,70,72,-1,74,76,78,80,82,84,86,88,90,92,-1,94,-1,-1,-1,-1,-1,-1,-1,-1,-1,-1,-1,-1,-1,-1,-1,-1,-1,-1,-1,-1,-1,-1,-1,-1,-1,-1,-1,-1,-1,-1,-1,-1,-1,-1,-1,-1,-1,-1,-1,-1,-1],"split_conditions":[2.905586E-1,3.5E0,3.5E0,1.8779758E-1,2.6030493E-1,3.1662488E-1,3.4582418E-1,1.6949694E-1,1.9835198E-1,2.558647E-1,2.684577E-1,1.5E0,8.3868176E-2,2.962981E-1,8.5E0,1.6326562E-1,1.7493306E-1,1.9448997E-1,2.0339218E-1,2.3952192E-1,5.5E0,4.5E0,2.7334994E-1,4.8339467E-2,2.9703698E-1,2.9197252E-1,2.9925373E-1,3.5398537E-1,3.773734E-1,1.5686944E-1,3.8572744E-2,1.7241949E-1,1.7992017E-1,1.9627731E-2,5.6841146E-2,2.0067114E-1,2.1544054E-1,2.2944635E-1,2.5052303E-1,4.5E0,9.5E0,3.460014E-2,7.5E0,6.5E0,5.5E0,2.9412472E-1,2.9925373E-1,6E0,2.9484206E-1,2.977686E-1,3.0534548E-1,6.5E0,6.70564E-2,3.5608622E-1,6.671348E-2,5.03397E-3,-7.0637516E-3,-2.6473809E-2,-8.070803E-3,2.6159097E-2,-3.3463384E-3,-3.2549575E-2,-1.0552669E-2,4.09964E-2,1.7428989E-2,8.954247E-3,-6.1674668E-3,3.3802208E-2,-7.6236534E-3,4.4861987E-2,-4.3397143E-2,7.3814556E-2,1.9595146E-2,-4.530164E-2,-2.3629604E-2,5.044335E-2,2.8301955E-3,-1.783476E-2,1.2443001E-2,1.5065575E-2,4.7065545E-2,-1.1948776E-2,1.1033306E-2,-1.0511207E-2,1.6214276E-2,3.474137E-2,6.557175E-2,8.876896E-3,-2.4911417E-2,4.0094722E-2,1.0596886E-2,6.319342E-2,-3.2546998E-3,2.4828658E-2,6.7417143E-4],"split_indices":[1,0,0,1,1,1,1,1,1,1,1,0,0,1,0,1,1,1,1,1,0,0,1,0,1,1,1,1,1,1,0,1,1,0,0,1,1,1,1,0,0,0,0,0,0,1,1,0,1,1,1,0,0,1,0,0,0,0,0,0,0,0,0,0,0,0,0,0,0,0,0,0,0,0,0,0,0,0,0,0,0,0,0,0,0,0,0,0,0,0,0,0,0,0,0],"split_type":[0,0,0,0,0,0,0,0,0,0,0,0,0,0,0,0,0,0,0,0,0,0,0,0,0,0,0,0,0,0,0,0,0,0,0,0,0,0,0,0,0,0,0,0,0,0,0,0,0,0,0,0,0,0,0,0,0,0,0,0,0,0,0,0,0,0,0,0,0,0,0,0,0,0,0,0,0,0,0,0,0,0,0,0,0,0,0,0,0,0,0,0,0,0,0],"sum_hessian":[6.1E2,4.15E2,1.95E2,1.56E2,2.59E2,2.7E1,1.68E2,3.6E1,1.2E2,1.81E2,7.8E1,2E1,7E0,1.34E2,3.4E1,1.7E1,1.9E1,1.2E1,1.08E2,1.67E2,1.4E1,2E1,5.8E1,5E0,1.5E1,1.8E1,1.16E2,1.4E1,2E1,1.2E1,5E0,5E0,1.4E1,8E0,4E0,6E0,1.02E2,1.25E2,4.2E1,4E0,1E1,3E0,1.7E1,1.3E1,4.5E1,4E0,1.1E1,5E0,1.3E1,7E0,1.09E2,6E0,8E0,1.7E1,3E0,8E0,4E0,2E0,3E0,5E0,9E0,3E0,3E0,1.4E1,8.8E1,9.8E1,2.7E1,2.8E1,1.4E1,2E0,2E0,8E0,2E0,9E0,8E0,6E0,7E0,1.2E1,3.3E1,2E0,2E0,2E0,9E0,2E0,3E0,7E0,6E0,1E0,6E0,1.4E1,9.5E1,3E0,3E0,8E0,9E0],"tree_param":{"num_deleted":"0","num_feature":"2","num_nodes":"95","size_leaf_vector":"0"}},{"base_weights":[3.8934067E-2,3.0823382E-2,6.9298424E-2,3.411376E-2,-5.6256082E-2,1.4200708E-1,4.559162E-2,3.162578E-2,1.5721035E-1,3.45601E-2,-1.3236503E-1,1.13392435E-1,2.1010017E-1,3.1993944E-2,1.4037545E-1,3.662434E-2,3.7938775E-3,6.280422E-2,1.9394605E-1,6.3373568E-3,5.587082E-2,-1.5815108E-1,-5.4148197E-2,1.9840376E-1,7.403289E-2,6.1026648E-2,9.289208E-3,1.8623842E-1,6.347275E-2,1.8543698E-2,4.7894433E-2,-7.2747315E-3,3.9380915E-2,-2.377224E-2,1.9807816E-2,3.621292E-2,2.194001E-1,1.360848E-1,2.217397E-2,3.633836E-2,2.167017E-1,-1.3855015E-1,4.97128E-2,4.7470094E-3,1.7855072E-1,3.2878444E-2,-5.1637907E-2,1.16901286E-1,4.241905E-2,1.0214257E-2,-5.0542533E-2,6.6539474E-2,-3.9107513E-2,9.101232E-3,2.5963783E-2,4.6539307E-3,1.5419579E-1,7.8288555E-2,-8.655071E-3,-1.426417E-2,7.247333E-2,-3.621165E-2,-1.5726852E-1,1.6028976E-1,2.9336384E-2,-3.3416748E-3,1.8550873E-2],"categories":[],"categories_nodes":[],"categories_segments":[],"categories_sizes":[],"default_left":[1,1,1,1,1,1,1,1,1,1,1,1,0,1,1,1,1,0,0,1,0,0,0,1,1,1,1,0,1,1,1,1,1,0,1,0,0,1,1,1,0,1,1,1,0,0,0,0,0,0,0,0,0,0,0,0,0,0,0,0,0,0,0,0,0,0,0],"id":17,"left_children":[1,3,5,7,9,11,13,15,17,19,21,23,-1,25,27,29,31,-1,-1,33,-1,-1,-1,35,37,39,41,-1,43,45,47,49,51,-1,53,-1,-1,55,57,59,-1,61,63,65,-1,-1,-1,-1,-1,-1,-1,-1,-1,-1,-1,-1,-1,-1,-1,-1,-1,-1,-1,-1,-1,-1,-1],"loss_changes":[1.483385E-1,1.4059699E-1,2.1415806E-1,1.380524E-1,1.2898919E-1,3.6578476E-2,1.21815145E-1,6.371686E-2,1.9032046E-2,5.058949E-3,1.1605442E-2,6.56158E-2,0E0,5.678176E-2,3.0502751E-2,7.837856E-2,2.8253315E-2,0E0,0E0,2.4988265E-3,0E0,0E0,0E0,1.5892744E-2,5.490548E-2,1.3817275E-1,3.056976E-1,0E0,3.970065E-2,1.5360913E-1,8.534473E-2,4.213531E-2,3.8839944E-2,0E0,2.7335132E-5,0E0,0E0,1.8325135E-2,1.970714E-2,6.320349E-2,0E0,1.5376762E-2,8.542416E-2,6.202664E-4,0E0,0E0,0E0,0E0,0E0,0E0,0E0,0E0,0E0,0E0,0E0,0E0,0E0,0E0,0E0,0E0,0E0,0E0,0E0,0E0,0E0,0E0,0E0],"parents":[2147483647,0,0,1,1,2,2,3,3,4,4,5,5,6,6,7,7,8,8,9,9,10,10,11,11,13,13,14,14,15,15,16,16,19,19,23,23,24,24,25,25,26,26,28,28,29,29,30,30,31,31,32,32,34,34,37,37,38,38,39,39,41,41,42,42,43,43],"right_children":[2,4,6,8,10,12,14,16,18,20,22,24,-1,26,28,30,32,-1,-1,34,-1,-1,-1,36,38,40,42,-1,44,46,48,50,52,-1,54,-1,-1,56,58,60,-1,62,64,66,-1,-1,-1,-1,-1,-1,-1,-1,-1,-1,-1,-1,-1,-1,-1,-1,-1,-1,-1,-1,-1,-1,-1],"split_conditions":[3.1007957E-1,3.0534548E-1,5.5E0,3.0226892E-1,5.5E0,3.3241254E-1,3.6474502E-1,8.5E0,5.5E0,3.069074E-1,3.0848533E-1,2.5E0,6.303006E-2,3.287696E-1,9.5E0,2.2388372E-1,2.81032E-1,1.8841267E-2,5.8183815E-2,2.5E0,1.6761247E-2,-4.7445323E-2,-1.624446E-2,3.1169042E-1,3.1746918E-1,3.269779E-1,3.3426446E-1,5.5871528E-2,3.846312E-1,2.1544054E-1,2.2944635E-1,2.608745E-1,2.9703698E-1,-7.131672E-3,4.5E0,1.0863877E-2,6.582003E-2,3.5E0,3.5E0,7.5E0,6.501051E-2,6.5E0,6.5E0,3.785828E-1,5.356522E-2,9.863533E-3,-1.5491373E-2,3.5070386E-2,1.27257155E-2,3.0642773E-3,-1.516276E-2,1.9961843E-2,-1.1732254E-2,2.7303696E-3,7.7891354E-3,1.3961792E-3,4.6258736E-2,2.3486568E-2,-2.5965215E-3,-4.279251E-3,2.1742001E-2,-1.0863496E-2,-4.718056E-2,4.808693E-2,8.800915E-3,-1.0025025E-3,5.565262E-3],"split_indices":[1,1,0,1,0,1,1,0,0,1,1,0,0,1,0,1,1,0,0,0,0,0,0,1,1,1,1,0,1,1,1,1,1,0,0,0,0,0,0,0,0,0,0,1,0,0,0,0,0,0,0,0,0,0,0,0,0,0,0,0,0,0,0,0,0,0,0],"split_type":[0,0,0,0,0,0,0,0,0,0,0,0,0,0,0,0,0,0,0,0,0,0,0,0,0,0,0,0,0,0,0,0,0,0,0,0,0,0,0,0,0,0,0,0,0,0,0,0,0,0,0,0,0,0,0,0,0,0,0,0,0,0,0,0,0,0,0],"sum_hessian":[6.1E2,4.83E2,1.27E2,4.66E2,1.7E1,3E1,9.7E1,4.58E2,8E0,8E0,9E0,2.3E1,7E0,8.6E1,1.1E1,3.88E2,7E1,3E0,5E0,4E0,4E0,6E0,3E0,6E0,1.7E1,3.7E1,4.9E1,6E0,5E0,1.5E2,2.38E2,5.4E1,1.6E1,1E0,3E0,1E0,5E0,7E0,1E1,3.3E1,4E0,1E1,3.9E1,4E0,1E0,1.25E2,2.5E1,1.6E1,2.22E2,3.9E1,1.5E1,1.2E1,4E0,2E0,1E0,1E0,6E0,3E0,7E0,1.4E1,1.9E1,2E0,8E0,5E0,3.4E1,3E0,1E0],"tree_param":{"num_deleted":"0","num_feature":"2","num_nodes":"67","size_leaf_vector":"0"}},{"base_weights":[2.8031768E-2,2.1724544E-2,5.166196E-2,2.4126438E-2,-4.1798167E-2,1.061226E-1,3.390745E-2,2.2221338E-2,1.1860582E-1,2.6430765E-2,-9.902439E-2,9.097433E-2,1.8562984E-1,2.3330787E-2,1.0776266E-1,5.1161263E-2,1.790793E-2,4.867363E-2,1.4545965E-1,1.1077063E-2,5.3445816E-2,-1.1748368E-1,-4.196453E-2,1.3074541E-1,5.7549197E-2,4.4889376E-2,6.4796447E-3,1.3834818E-1,5.411911E-2,3.1123161E-2,8.3447024E-2,1.340409E-4,2.3425529E-2,3.5661697E-2,1.0360082E-3,5.009804E-2,1.6480684E-1,1.1454528E-1,1.6047217E-2,7.4411475E-4,1.055426E-1,-1.02261975E-1,3.62216E-2,4.23584E-3,1.5176773E-1,-1.045772E-2,3.924638E-2,1.671416E-1,6.6720486E-2,1.0588131E-2,-1.9240716E-2,1.1856181E-1,1.8799817E-2,-2.0206451E-2,9.32579E-3,8.418783E-2,-6.91096E-4,1.3112983E-1,4.8722584E-2,-1.06866015E-2,5.0265122E-2,1.6537031E-2,-4.675865E-2,-1.3871874E-3,1.6983919E-1,-1.3265364E-1,-3.9261244E-2,1.1521473E-1,9.571506E-3,-2.5892258E-3,1.5768051E-2],"categories":[],"categories_nodes":[],"categories_segments":[],"categories_sizes":[],"default_left":[1,1,1,1,1,1,1,1,1,1,1,1,0,1,1,1,1,0,0,1,0,0,0,1,1,1,1,0,1,1,1,1,1,0,1,1,0,1,1,1,1,1,1,1,0,0,0,0,0,0,0,0,0,0,0,0,0,0,0,0,0,0,0,0,0,0,0,0,0,0,0],"id":18,"left_children":[1,3,5,7,9,11,13,15,17,19,21,23,-1,25,27,29,31,-1,-1,33,-1,-1,-1,35,37,39,41,-1,43,45,47,49,51,-1,53,55,-1,57,59,61,63,65,67,69,-1,-1,-1,-1,-1,-1,-1,-1,-1,-1,-1,-1,-1,-1,-1,-1,-1,-1,-1,-1,-1,-1,-1,-1,-1,-1,-1],"loss_changes":[8.994165E-2,7.485464E-2,1.2016767E-1,8.142102E-2,7.2898E-2,2.0448774E-2,7.4037686E-2,5.6380644E-2,9.82146E-3,3.1410074E-3,5.6027025E-3,2.9697612E-2,0E0,3.131509E-2,1.2201309E-2,3.5572648E-2,3.9322615E-2,0E0,0E0,1.691044E-3,0E0,0E0,0E0,2.4707079E-2,3.8374517E-2,1.01668455E-1,1.6541351E-1,0E0,2.8583331E-2,1.3245709E-2,1.964648E-2,1.9648086E-2,1.3243341E-1,0E0,1.2450133E-3,8.715136E-3,0E0,1.2524948E-3,1.05996905E-2,1.8028015E-2,1.1023915E-1,1.5853524E-2,8.310419E-2,4.3436757E-4,0E0,0E0,0E0,0E0,0E0,0E0,0E0,0E0,0E0,0E0,0E0,0E0,0E0,0E0,0E0,0E0,0E0,0E0,0E0,0E0,0E0,0E0,0E0,0E0,0E0,0E0,0E0],"parents":[2147483647,0,0,1,1,2,2,3,3,4,4,5,5,6,6,7,7,8,8,9,9,10,10,11,11,13,13,14,14,15,15,16,16,19,19,23,23,24,24,25,25,26,26,28,28,29,29,30,30,31,31,32,32,34,34,35,35,37,37,38,38,39,39,40,40,41,41,42,42,43,43],"right_children":[2,4,6,8,10,12,14,16,18,20,22,24,-1,26,28,30,32,-1,-1,34,-1,-1,-1,36,38,40,42,-1,44,46,48,50,52,-1,54,56,-1,58,60,62,64,66,68,70,-1,-1,-1,-1,-1,-1,-1,-1,-1,-1,-1,-1,-1,-1,-1,-1,-1,-1,-1,-1,-1,-1,-1,-1,-1,-1,-1],"split_conditions":[3.1007957E-1,3.0534548E-1,5.5E0,3.0226892E-1,5.5E0,3.4188312E-1,3.6474502E-1,1.5E0,5.5E0,4.5E0,3.0848533E-1,3.5E0,5.5688955E-2,3.287696E-1,9.5E0,2.4390647E-1,2.1164086E-1,1.4602089E-2,4.3637898E-2,1.5E0,1.6033746E-2,-3.5245106E-2,-1.258936E-2,3.1662488E-1,3.1746918E-1,3.2171813E-1,3.3426446E-1,4.1504454E-2,3.846312E-1,1.6439468E-1,2.4948996E-1,1.9900551E-1,2.1544054E-1,1.0698509E-2,2.5E0,3.1331807E-1,4.9442057E-2,3.149628E-1,3.30581E-1,9.5E0,7.5E0,3.3241254E-1,3.399461E-1,3.785828E-1,4.553032E-2,-3.137316E-3,1.1773915E-2,5.0142482E-2,2.0016147E-2,3.1764393E-3,-5.7722153E-3,3.5568547E-2,5.639945E-3,-6.061936E-3,2.7977373E-3,2.5256349E-2,-2.073288E-4,3.933895E-2,1.4616775E-2,-3.2059806E-3,1.5079537E-2,4.9611097E-3,-1.4027596E-2,-4.1615622E-4,5.095176E-2,-3.979609E-2,-1.1778374E-2,3.456442E-2,2.871452E-3,-7.767678E-4,4.7304155E-3],"split_indices":[1,1,0,1,0,1,1,0,0,0,1,0,0,1,0,1,1,0,0,0,0,0,0,1,1,1,1,0,1,1,1,1,1,0,0,1,0,1,1,0,0,1,1,1,0,0,0,0,0,0,0,0,0,0,0,0,0,0,0,0,0,0,0,0,0,0,0,0,0,0,0],"split_type":[0,0,0,0,0,0,0,0,0,0,0,0,0,0,0,0,0,0,0,0,0,0,0,0,0,0,0,0,0,0,0,0,0,0,0,0,0,0,0,0,0,0,0,0,0,0,0,0,0,0,0,0,0,0,0,0,0,0,0,0,0,0,0,0,0,0,0,0,0,0,0],"sum_hessian":[6.1E2,4.83E2,1.27E2,4.66E2,1.7E1,3E1,9.7E1,4.58E2,8E0,8E0,9E0,2.7E1,3E0,8.6E1,1.1E1,5.8E1,4E2,3E0,5E0,6E0,2E0,6E0,3E0,1.1E1,1.6E1,3.7E1,4.9E1,6E0,5E0,3.7E1,2.1E1,9.5E1,3.05E2,1E0,5E0,4E0,7E0,6E0,1E1,2.2E1,1.5E1,1E1,3.9E1,4E0,1E0,6E0,3.1E1,2E0,1.9E1,6.2E1,3.3E1,1.3E1,2.92E2,1E0,4E0,2E0,2E0,4E0,2E0,6E0,4E0,1.7E1,5E0,6E0,9E0,6E0,4E0,9E0,3E1,3E0,1E0],"tree_param":{"num_deleted":"0","num_feature":"2","num_nodes":"71","size_leaf_vector":"0"}},{"base_weights":[2.0384293E-2,1.2301134E-2,3.3536084E-2,2.0988923E-2,-6.9299745E-3,9.980809E-2,3.0101273E-2,1.4076693E-2,6.2642306E-2,8.647576E-3,-5.142907E-2,6.534004E-2,1.2810174E-1,2.4029301E-2,6.1856408E-2,2.2196714E-2,-2.4236321E-2,-2.1438893E-2,1.03858836E-1,8.5249403E-4,1.16337456E-1,-1.0131689E-1,-1.4588507E-2,9.831492E-2,-6.6254616E-2,2.7811822E-2,-3.3765316E-2,1.1567434E-1,4.1626118E-2,8.41436E-3,7.107011E-2,3.1159503E-2,-1.4168607E-1,1.87397E-2,-3.536644E-2,1.601888E-1,-1.4082061E-2,-2.4151277E-2,1.3785652E-2,4.7436398E-2,1.3892889E-1,-1.7404366E-1,-6.20945E-2,1.889365E-2,-3.149517E-2,4.9614906E-2,1.3047664E-1,2.3400124E-2,9.226105E-2,3.9099693E-2,-1.4359626E-1,3.505087E-2,1.5014426E-1,2.0438785E-2,9.924153E-2,1.4580898E-2,-8.775934E-2,8.7331E-2,-6.347446E-2,-3.2993913E-2,5.4115113E-2,-2.2916862E-1,-3.396266E-2,-1.3082504E-2,3.3707935E-2,-7.936692E-2,-5.1709586E-3,7.855363E-2,2.655885E-1,-8.034674E-2,1.6328812E-2,1.3191795E-2,-5.988426E-2,5.7120938E-2,-6.441072E-4,1.3240814E-2,5.791378E-2,-8.8910736E-2,-4.4276595E-2,-7.233858E-2,4.6155453E-2,-9.785118E-2,8.868747E-3,2.9477628E-2,-3.579867E-2,1.5153027E-1,1.3910021E-3,-1.6393805E-1,-3.1114578E-2,9.462675E-2,-7.183838E-2,7.237489E-2,-5.16065E-3,5.302143E-2,1.20651245E-1],"categories":[],"categories_nodes":[],"categories_segments":[],"categories_sizes":[],"default_left":[1,1,1,1,1,1,1,1,1,1,1,1,0,1,1,1,1,1,1,1,1,1,1,1,0,1,1,1,1,1,1,1,1,1,1,1,1,1,1,1,0,0,1,1,1,0,0,1,0,1,1,1,0,1,1,0,0,0,0,0,0,0,0,0,0,0,0,0,0,0,0,0,0,0,0,0,0,0,0,0,0,0,0,0,0,0,0,0,0,0,0,0,0,0,0],"id":19,"left_children":[1,3,5,7,9,11,13,15,17,19,21,23,-1,25,27,29,31,33,35,37,39,41,43,45,-1,47,49,51,53,55,57,59,61,63,65,67,69,71,73,75,-1,-1,77,79,81,-1,-1,83,-1,85,87,89,-1,91,93,-1,-1,-1,-1,-1,-1,-1,-1,-1,-1,-1,-1,-1,-1,-1,-1,-1,-1,-1,-1,-1,-1,-1,-1,-1,-1,-1,-1,-1,-1,-1,-1,-1,-1,-1,-1,-1,-1,-1,-1],"loss_changes":[6.45417E-2,6.363426E-2,4.9806237E-2,7.455265E-2,8.293398E-2,2.3573115E-3,4.131885E-2,7.0847124E-2,1.3045141E-1,7.461201E-2,5.5496708E-2,3.6889046E-2,0E0,4.203763E-2,3.329125E-2,1.2536341E-1,2.646639E-1,7.937416E-3,1.683459E-1,2.749667E-2,2.7491525E-3,2.6275575E-2,1.13504175E-2,2.924066E-3,0E0,4.816757E-2,1.0164857E-1,1.9749075E-2,3.0930977E-2,8.845925E-2,9.524366E-2,4.302054E-2,1.14727765E-1,2.3462735E-3,1.2875754E-2,1.2541053E-1,1.9448468E-2,3.9486986E-2,3.5054583E-2,3.0801492E-4,0E0,0E0,8.4142387E-4,2.0748906E-2,3.5686865E-2,0E0,0E0,6.1138667E-2,0E0,3.37061E-2,6.33952E-3,3.2269917E-2,0E0,2.8293733E-2,5.298108E-4,0E0,0E0,0E0,0E0,0E0,0E0,0E0,0E0,0E0,0E0,0E0,0E0,0E0,0E0,0E0,0E0,0E0,0E0,0E0,0E0,0E0,0E0,0E0,0E0,0E0,0E0,0E0,0E0,0E0,0E0,0E0,0E0,0E0,0E0,0E0,0E0,0E0,0E0,0E0,0E0],"parents":[2147483647,0,0,1,1,2,2,3,3,4,4,5,5,6,6,7,7,8,8,9,9,10,10,11,11,13,13,14,14,15,15,16,16,17,17,18,18,19,19,20,20,21,21,22,22,23,23,25,25,26,26,27,27,28,28,29,29,30,30,31,31,32,32,33,33,34,34,35,35,36,36,37,37,38,38,39,39,42,42,43,43,44,44,47,47,49,49,50,50,51,51,53,53,54,54],"right_children":[2,4,6,8,10,12,14,16,18,20,22,24,-1,26,28,30,32,34,36,38,40,42,44,46,-1,48,50,52,54,56,58,60,62,64,66,68,70,72,74,76,-1,-1,78,80,82,-1,-1,84,-1,86,88,90,-1,92,94,-1,-1,-1,-1,-1,-1,-1,-1,-1,-1,-1,-1,-1,-1,-1,-1,-1,-1,-1,-1,-1,-1,-1,-1,-1,-1,-1,-1,-1,-1,-1,-1,-1,-1,-1,-1,-1,-1,-1,-1],"split_conditions":[2.81032E-1,6.5E0,1.5E0,5.5E0,2.608745E-1,2.992686E-1,3.4582418E-1,4.5E0,2.177923E-1,2.580657E-1,2.696643E-1,2.9414594E-1,3.8430523E-2,3.399461E-1,7.5E0,2.547782E-1,2.5000435E-1,1.872444E-1,2.5974512E-1,2.2018424E-1,2.591805E-1,7.5E0,2.7334994E-1,2.8777143E-1,-1.9876385E-2,3.3426446E-1,8.5E0,3.519092E-1,3.7152058E-1,2.5000435E-1,2.784238E-1,1.9737697E-1,2.6549193E-1,1.7650875E-1,2.016949E-1,2.4440831E-1,2.6549193E-1,2.0514318E-1,2.2944635E-1,9.5E0,4.1678667E-2,-5.22131E-2,2.6258332E-1,7.5E0,2.7586353E-1,1.4884473E-2,3.9142992E-2,3.287696E-1,2.7678316E-2,4.5E0,3.438424E-1,6.5E0,4.5043282E-2,3.519092E-1,3.773734E-1,4.3742694E-3,-2.6327802E-2,2.61993E-2,-1.904234E-2,-9.898175E-3,1.6234534E-2,-6.875059E-2,-1.0188798E-2,-3.9247517E-3,1.0112381E-2,-2.3810077E-2,-1.5512876E-3,2.3566091E-2,7.967655E-2,-2.4104023E-2,4.8986436E-3,3.957539E-3,-1.796528E-2,1.7136281E-2,-1.9323216E-4,3.9722444E-3,1.7374136E-2,-2.6673222E-2,-1.3282979E-2,-2.1701574E-2,1.3846637E-2,-2.9355355E-2,2.6606242E-3,8.843289E-3,-1.0739601E-2,4.545908E-2,4.1730065E-4,-4.9181417E-2,-9.334374E-3,2.8388025E-2,-2.1551514E-2,2.1712467E-2,-1.548195E-3,1.590643E-2,3.6195375E-2],"split_indices":[1,0,0,0,1,1,1,0,1,1,1,1,0,1,0,1,1,1,1,1,1,0,1,1,0,1,0,1,1,1,1,1,1,1,1,1,1,1,1,0,0,0,1,0,1,0,0,1,0,0,1,0,0,1,1,0,0,0,0,0,0,0,0,0,0,0,0,0,0,0,0,0,0,0,0,0,0,0,0,0,0,0,0,0,0,0,0,0,0,0,0,0,0,0,0],"split_type":[0,0,0,0,0,0,0,0,0,0,0,0,0,0,0,0,0,0,0,0,0,0,0,0,0,0,0,0,0,0,0,0,0,0,0,0,0,0,0,0,0,0,0,0,0,0,0,0,0,0,0,0,0,0,0,0,0,0,0,0,0,0,0,0,0,0,0,0,0,0,0,0,0,0,0,0,0,0,0,0,0,0,0,0,0,0,0,0,0,0,0,0,0,0,0],"sum_hessian":[6.1E2,3.79E2,2.31E2,2.61E2,1.18E2,1E1,2.21E2,2.25E2,3.6E1,8.8E1,3E1,6E0,4E0,1.87E2,3.4E1,1.86E2,3.9E1,1.2E1,2.4E1,8.3E1,5E0,1.2E1,1.8E1,5E0,1E0,1.76E2,1.1E1,8E0,2.6E1,1.46E2,4E1,2.7E1,1.2E1,3E0,9E0,1.6E1,8E0,2.8E1,5.5E1,2E0,3E0,3E0,9E0,6E0,1.2E1,3E0,2E0,1.66E2,1E1,7E0,4E0,3E0,5E0,2E1,6E0,1.38E2,8E0,3.6E1,4E0,7E0,2E1,6E0,6E0,1E0,2E0,3E0,6E0,1E1,6E0,2E0,6E0,1.4E1,1.4E1,1.3E1,4.2E1,1E0,1E0,2E0,7E0,1E0,5E0,4E0,8E0,1.51E2,1.5E1,1E0,6E0,3E0,1E0,2E0,1E0,6E0,1.4E1,3E0,3E0],"tree_param":{"num_deleted":"0","num_feature":"2","num_nodes":"95","size_leaf_vector":"0"}},{"base_weights":[1.4476215E-2,1.084077E-2,3.4867026E-2,3.3465464E-2,7.761093E-3,1.1019573E-1,2.5371196E-2,2.0615578E-2,6.912041E-2,1.0208659E-2,-1.6782805E-2,2.1143595E-2,1.2981582E-1,6.2749594E-2,1.4792673E-2,2.6676107E-2,-1.2264013E-2,5.4916244E-2,1.12366356E-1,1.150308E-2,-4.3754004E-2,-8.686145E-3,-5.6025233E-2,-3.1320572E-2,1.01339705E-1,-7.961297E-2,2.7342716E-2,1.7754028E-2,1.3079707E-1,-8.6134434E-2,1.0593823E-2,1.060276E-1,3.7562054E-2,3.2093883E-3,2.162738E-2,-7.881207E-2,1.3588428E-1,-1.9524978E-2,1.7722564E-2,-7.174126E-2,1.9135475E-2,9.841283E-3,-5.436182E-2,3.9294243E-2,1.1602392E-1,6.542206E-4,-1.2790413E-1,-1.0560608E-3,4.6846334E-2,-1.4330228E-2,2.3049528E-2,4.2701483E-2,-2.4162292E-2,-4.4766426E-2,4.9116135E-2,2.0926114E-2,-5.3804624E-3,-1.5212837E-2,3.1003576E-2,9.035747E-3,-1.05202265E-1,-5.761115E-2,-1.39506655E-2,3.3161283E-2,-1.7585516E-2,1.9815445E-2,-5.05352E-3,-8.666929E-2,2.1280289E-2,-4.0265083E-2,7.923571E-2,1.3335705E-1,5.668497E-2,-2.8155645E-2,4.354191E-2,3.516477E-2,-5.0352097E-2,7.7154286E-2,2.296702E-2],"categories":[],"categories_nodes":[],"categories_segments":[],"categories_sizes":[],"default_left":[1,1,1,1,1,1,1,1,1,1,1,0,0,1,1,1,1,1,0,1,1,1,1,1,1,1,1,1,0,0,1,0,1,1,1,1,0,1,1,0,0,1,1,1,1,1,0,1,1,0,0,0,0,0,0,0,0,0,0,0,0,0,0,0,0,0,0,0,0,0,0,0,0,0,0,0,0,0,0],"id":20,"left_children":[1,3,5,7,9,11,13,15,17,19,21,-1,-1,23,25,27,29,31,-1,33,35,37,39,41,43,45,47,49,-1,-1,51,-1,53,55,57,59,-1,61,63,-1,-1,65,67,69,71,73,-1,75,77,-1,-1,-1,-1,-1,-1,-1,-1,-1,-1,-1,-1,-1,-1,-1,-1,-1,-1,-1,-1,-1,-1,-1,-1,-1,-1,-1,-1,-1,-1],"loss_changes":[4.491526E-2,3.5972178E-2,6.30126E-2,2.6981086E-2,2.774475E-2,1.4727324E-2,3.1890646E-2,9.692738E-3,3.6576241E-3,2.9700767E-2,1.2858129E-2,0E0,0E0,6.851722E-2,8.0373295E-2,3.4836844E-2,1.4420636E-2,8.435331E-3,0E0,3.427342E-2,7.368703E-2,1.0650658E-2,9.641398E-3,6.2255133E-3,7.2850883E-3,3.1093244E-2,3.272833E-2,6.786586E-3,0E0,0E0,8.843329E-3,0E0,1.3613516E-2,3.4506183E-2,6.4029135E-2,2.1815475E-2,0E0,4.716195E-3,6.5793847E-3,0E0,0E0,5.4582726E-4,1.1619568E-2,1.59013E-2,2.7259588E-3,6.1683045E-3,0E0,4.6409205E-2,2.3558661E-2,0E0,0E0,0E0,0E0,0E0,0E0,0E0,0E0,0E0,0E0,0E0,0E0,0E0,0E0,0E0,0E0,0E0,0E0,0E0,0E0,0E0,0E0,0E0,0E0,0E0,0E0,0E0,0E0,0E0,0E0],"parents":[2147483647,0,0,1,1,2,2,3,3,4,4,5,5,6,6,7,7,8,8,9,9,10,10,13,13,14,14,15,15,16,16,17,17,19,19,20,20,21,21,22,22,23,23,24,24,25,25,26,26,27,27,30,30,32,32,33,33,34,34,35,35,37,37,38,38,41,41,42,42,43,43,44,44,45,45,47,47,48,48],"right_children":[2,4,6,8,10,12,14,16,18,20,22,-1,-1,24,26,28,30,32,-1,34,36,38,40,42,44,46,48,50,-1,-1,52,-1,54,56,58,60,-1,62,64,-1,-1,66,68,70,72,74,-1,76,78,-1,-1,-1,-1,-1,-1,-1,-1,-1,-1,-1,-1,-1,-1,-1,-1,-1,-1,-1,-1,-1,-1,-1,-1,-1,-1,-1,-1,-1,-1],"split_conditions":[3.2171813E-1,1.5E0,4.5E0,2.6667193E-1,9.5E0,3.2520562E-1,3.287696E-1,2.4948996E-1,3.1009614E-1,3.1662488E-1,3.061304E-1,6.343079E-3,3.8944747E-2,6.5E0,3.3241254E-1,2.4390647E-1,2.521053E-1,2.727329E-1,3.370991E-2,5.5E0,8.5E0,2.790758E-1,3.1915796E-1,5.5E0,7.5E0,6.5E0,3.4582418E-1,1.6046911E-1,3.9239123E-2,-2.584033E-2,2.5974512E-1,3.1808283E-2,2.7523515E-1,2.1544054E-1,2.2018424E-1,4E0,4.0765285E-2,2.0659003E-1,2.9703698E-1,-2.1522379E-2,5.7406425E-3,3.2345247E-1,3.2520562E-1,3.2520562E-1,9.5E0,3.30581E-1,-3.8371243E-2,3.399461E-1,8.5E0,-4.2990684E-3,6.9148587E-3,1.2810445E-2,-7.248688E-3,-1.3429929E-2,1.4734841E-2,6.2778345E-3,-1.6141388E-3,-4.5638513E-3,9.301073E-3,2.710724E-3,-3.156068E-2,-1.7283345E-2,-4.1851997E-3,9.948385E-3,-5.275655E-3,5.944634E-3,-1.5160561E-3,-2.6000788E-2,6.384087E-3,-1.2079526E-2,2.3770714E-2,4.0007114E-2,1.7005492E-2,-8.446694E-3,1.3062573E-2,1.0549432E-2,-1.5105629E-2,2.3146287E-2,6.8901065E-3],"split_indices":[1,0,0,1,0,1,1,1,1,1,1,0,0,0,1,1,1,1,0,0,0,1,1,0,0,0,1,1,0,0,1,0,1,1,1,0,0,1,1,0,0,1,1,1,0,1,0,1,0,0,0,0,0,0,0,0,0,0,0,0,0,0,0,0,0,0,0,0,0,0,0,0,0,0,0,0,0,0,0],"split_type":[0,0,0,0,0,0,0,0,0,0,0,0,0,0,0,0,0,0,0,0,0,0,0,0,0,0,0,0,0,0,0,0,0,0,0,0,0,0,0,0,0,0,0,0,0,0,0,0,0,0,0,0,0,0,0,0,0,0,0,0,0,0,0,0,0,0,0,0,0,0,0,0,0,0,0,0,0,0,0],"sum_hessian":[6.1E2,5.19E2,9.1E1,6.1E1,4.58E2,9E0,8.2E1,4.6E1,1.5E1,4.17E2,4.1E1,2E0,7E0,1.7E1,6.5E1,3.9E1,7E0,1.3E1,2E0,4.08E2,9E0,3.5E1,6E0,5E0,1.2E1,7E0,5.8E1,3.7E1,2E0,1E0,6E0,2E0,1.1E1,2.25E2,1.83E2,8E0,1E0,2.5E1,1E1,5E0,1E0,2E0,3E0,3E0,9E0,3E0,4E0,2.4E1,3.4E1,5E0,3.2E1,3E0,3E0,1E0,1E1,7.3E1,1.52E2,3.7E1,1.46E2,2E0,6E0,2E0,2.3E1,7E0,3E0,1E0,1E0,2E0,1E0,1E0,2E0,6E0,3E0,2E0,1E0,1.4E1,1E1,1.4E1,2E1],"tree_param":{"num_deleted":"0","num_feature":"2","num_nodes":"79","size_leaf_vector":"0"}},{"base_weights":[1.0407829E-2,5.532441E-3,2.0702489E-2,8.55075E-3,-1.0317418E-2,7.761669E-2,1.2687209E-2,4.724278E-3,1.2604618E-1,-8.401143E-2,4.0852395E-3,3.8327515E-2,1.3884003E-1,-7.508061E-2,1.8532354E-2,8.721395E-3,-2.6348896E-2,1.7758247E-1,2.8686142E-2,-5.99339E-2,-1.11163616E-1,4.81498E-2,-6.314663E-3,6.125684E-2,-1.0097504E-2,-9.1957726E-2,-4.569006E-2,4.126358E-2,9.242612E-3,4.454151E-3,1.1147531E-1,3.4519814E-2,-7.019321E-2,-6.613827E-2,6.892681E-2,-7.55103E-2,2.4550438E-2,7.254374E-2,-1.2675524E-2,-2.9312199E-2,2.911919E-2,1.20847225E-2,1.4428687E-1,-3.7857372E-2,1.3246775E-2,8.154233E-3,-7.4650764E-2,-4.3531144E-3,5.883329E-2,7.391253E-2,2.5079227E-3,8.335033E-3,-2.9587364E-2,-5.8919333E-2,6.780258E-2,-1.1029911E-1,-4.955E-2,3.608346E-2,8.720322E-2,1.1440277E-2,-2.452755E-2,8.60554E-3,-7.055303E-2,8.709812E-2,2.191135E-3,6.600046E-2,-3.346481E-2,1.373291E-3,1.674684E-2,1.9537449E-2,-3.1034742E-2,4.532171E-2,9.708071E-2,1.2991333E-1,2.335303E-2,-8.7347984E-2,1.1651302E-2],"categories":[],"categories_nodes":[],"categories_segments":[],"categories_sizes":[],"default_left":[1,1,1,1,1,1,1,1,1,1,1,1,0,1,1,1,1,0,1,1,0,1,1,1,1,0,1,1,1,1,0,1,1,0,0,0,0,1,1,1,1,1,0,0,1,0,0,1,1,1,1,0,0,0,0,0,0,0,0,0,0,0,0,0,0,0,0,0,0,0,0,0,0,0,0,0,0],"id":21,"left_children":[1,3,5,7,9,11,13,15,17,19,21,23,-1,25,27,29,31,-1,33,35,-1,37,39,41,43,-1,45,47,49,51,-1,53,55,-1,-1,-1,-1,57,59,61,63,65,-1,-1,67,-1,-1,69,71,73,75,-1,-1,-1,-1,-1,-1,-1,-1,-1,-1,-1,-1,-1,-1,-1,-1,-1,-1,-1,-1,-1,-1,-1,-1,-1,-1],"loss_changes":[3.0551836E-2,1.9989569E-2,8.842717E-2,1.5676206E-1,7.1456306E-2,5.2408576E-2,9.0143144E-2,4.2458862E-2,5.009918E-2,5.2886456E-4,2.6425278E-2,1.8384192E-2,0E0,1.2547448E-3,3.4038875E-2,1.3192327E-1,1.0650417E-1,0E0,2.3637688E-2,1.2381505E-2,0E0,1.7240992E-2,3.915344E-2,4.316672E-2,4.389693E-3,0E0,9.964933E-3,3.7925288E-2,5.077186E-2,3.8690947E-2,0E0,5.6863405E-2,1.3576724E-2,0E0,0E0,0E0,0E0,1.1293143E-3,1.4238863E-3,4.5956165E-2,2.9473092E-2,2.185539E-2,0E0,0E0,1.4323357E-4,0E0,0E0,9.530487E-3,1.3170771E-2,2.811123E-2,8.8927485E-2,0E0,0E0,0E0,0E0,0E0,0E0,0E0,0E0,0E0,0E0,0E0,0E0,0E0,0E0,0E0,0E0,0E0,0E0,0E0,0E0,0E0,0E0,0E0,0E0,0E0,0E0],"parents":[2147483647,0,0,1,1,2,2,3,3,4,4,5,5,6,6,7,7,8,8,9,9,10,10,11,11,13,13,14,14,15,15,16,16,18,18,19,19,21,21,22,22,23,23,24,24,26,26,27,27,28,28,29,29,31,31,32,32,37,37,38,38,39,39,40,40,41,41,44,44,47,47,48,48,49,49,50,50],"right_children":[2,4,6,8,10,12,14,16,18,20,22,24,-1,26,28,30,32,-1,34,36,-1,38,40,42,44,-1,46,48,50,52,-1,54,56,-1,-1,-1,-1,58,60,62,64,66,-1,-1,68,-1,-1,70,72,74,76,-1,-1,-1,-1,-1,-1,-1,-1,-1,-1,-1,-1,-1,-1,-1,-1,-1,-1,-1,-1,-1,-1,-1,-1,-1,-1],"split_conditions":[2.905586E-1,2.7334994E-1,2.962981E-1,2.7088174E-1,2.7586353E-1,2.9484206E-1,2.9925373E-1,2.6030493E-1,6.5E0,7.5E0,2.784238E-1,7.5E0,4.1652013E-2,5.5E0,5.5E0,2.580657E-1,4.5E0,5.3274743E-2,7.5E0,6.5E0,-3.3349086E-2,7.5E0,6.5E0,5.5E0,2.9197252E-1,-2.7587319E-2,7.5E0,3.0848533E-1,3.0534548E-1,2.5052303E-1,3.3442594E-2,2.6258332E-1,2.6373756E-1,-1.9841481E-2,2.0678043E-2,-2.2653092E-2,7.3651318E-3,3.5E0,8.5E0,3.5E0,7.5E0,3.5E0,4.3286063E-2,-1.1357212E-2,2.934003E-1,2.44627E-3,-2.239523E-2,3.5E0,3.3241254E-1,7.5E0,3.1007957E-1,2.50051E-3,-8.876209E-3,-1.76758E-2,2.0340774E-2,-3.3089735E-2,-1.4865001E-2,1.0825038E-2,2.6160967E-2,3.4320832E-3,-7.358265E-3,2.581662E-3,-2.116591E-2,2.6129438E-2,6.573405E-4,1.980014E-2,-1.0039444E-2,4.1198733E-4,5.024052E-3,5.861235E-3,-9.310422E-3,1.3596513E-2,2.9124213E-2,3.8974002E-2,7.0059095E-3,-2.6204396E-2,3.4953908E-3],"split_indices":[1,1,1,1,1,1,1,1,0,0,1,0,0,0,0,1,0,0,0,0,0,0,0,0,1,0,0,1,1,1,0,1,1,0,0,0,0,0,0,0,0,0,0,0,1,0,0,0,1,0,1,0,0,0,0,0,0,0,0,0,0,0,0,0,0,0,0,0,0,0,0,0,0,0,0,0,0],"split_type":[0,0,0,0,0,0,0,0,0,0,0,0,0,0,0,0,0,0,0,0,0,0,0,0,0,0,0,0,0,0,0,0,0,0,0,0,0,0,0,0,0,0,0,0,0,0,0,0,0,0,0,0,0,0,0,0,0,0,0,0,0,0,0,0,0,0,0,0,0,0,0,0,0,0,0,0,0],"sum_hessian":[6.1E2,4.15E2,1.95E2,3.49E2,6.6E1,2.3E1,1.72E2,3.39E2,1E1,1E1,5.6E1,1.5E1,8E0,1E1,1.62E2,3.01E2,3.8E1,6E0,4E0,7E0,3E0,1E1,4.6E1,1E1,5E0,5E0,5E0,4.6E1,1.16E2,2.9E2,1.1E1,1.6E1,2.2E1,1E0,3E0,6E0,1E0,7E0,3E0,2.8E1,1.8E1,7E0,3E0,2E0,3E0,2E0,3E0,1.3E1,3.3E1,1E1,1.06E2,2.61E2,2.9E1,4E0,1.2E1,6E0,1.6E1,3E0,4E0,1E0,2E0,1.5E1,1.3E1,5E0,1.3E1,3E0,4E0,1E0,2E0,7E0,6E0,2.6E1,7E0,4E0,6E0,9E0,9.7E1],"tree_param":{"num_deleted":"0","num_feature":"2","num_nodes":"77","size_leaf_vector":"0"}},{"base_weights":[7.5019114E-3,-8.8666676E-4,1.2893731E-2,3.945277E-3,-3.1315688E-2,7.582345E-2,8.72151E-3,-1.8344957E-3,2.9850433E-2,-6.355222E-2,-4.2175995E-3,2.0945255E-2,1.3378645E-1,-9.5908485E-2,1.1449429E-2,7.698603E-3,-3.6567844E-2,8.901376E-2,-8.793244E-4,-8.347253E-2,-4.0997293E-2,4.3210983E-3,-5.119769E-2,5.0887108E-2,-1.1988776E-2,1.5876238E-1,7.206287E-2,-1.3570945E-1,-1.2229919E-2,3.6448218E-2,8.751334E-3,-4.0507E-3,9.533721E-2,-1.4036617E-1,1.808984E-3,2.0153046E-2,9.970179E-2,7.3559016E-2,-3.8049646E-2,-3.6478043E-3,-5.114746E-2,-3.0366352E-2,2.6002103E-2,8.145332E-3,8.090711E-2,-5.404854E-2,1.5644837E-2,1.7757893E-2,8.1199646E-2,5.775261E-2,-5.48083E-2,-4.8791766E-3,7.115878E-2,-6.703329E-2,1.17635885E-2,3.656271E-3,-2.0151237E-2,1.699421E-1,-2.486079E-2,-1.6505268E-1,-6.207323E-2,-2.5083406E-2,1.0283426E-2,3.532219E-2,-5.092621E-3,-1.5619278E-2,8.6658716E-2,-1.0297028E-1,-5.159378E-3,-2.0688057E-2,1.5216351E-2,3.4261704E-3,-7.656511E-2,3.705624E-2,5.3258897E-3,3.7228107E-2,-1.3958295E-2,7.339239E-3,2.4433613E-2,-1.08475685E-2,-7.136488E-2,3.7550047E-2,-1.4155436E-1,2.0865369E-1,2.9749552E-2,-3.8473923E-2,-8.193656E-2,3.8386937E-2,7.97337E-3],"categories":[],"categories_nodes":[],"categories_segments":[],"categories_sizes":[],"default_left":[1,1,1,1,1,1,1,1,1,1,1,1,1,1,1,1,1,1,1,0,1,1,0,1,1,0,1,0,1,1,1,1,1,1,1,1,0,1,1,1,0,1,1,1,0,0,1,0,0,0,1,1,1,1,1,0,0,0,0,0,0,0,0,0,0,0,0,0,0,0,0,0,0,0,0,0,0,0,0,0,0,0,0,0,0,0,0,0,0],"id":22,"left_children":[1,3,5,7,9,11,13,15,17,19,21,23,25,27,29,31,33,35,37,-1,39,41,-1,43,45,-1,47,-1,49,51,53,55,57,59,61,63,-1,65,67,69,-1,71,73,75,-1,-1,77,-1,-1,-1,79,81,83,85,87,-1,-1,-1,-1,-1,-1,-1,-1,-1,-1,-1,-1,-1,-1,-1,-1,-1,-1,-1,-1,-1,-1,-1,-1,-1,-1,-1,-1,-1,-1,-1,-1,-1,-1],"loss_changes":[2.7646776E-2,3.5411067E-2,9.700979E-2,3.1197753E-2,2.8559059E-2,7.035865E-2,1.0099587E-1,5.6902427E-2,6.916511E-2,3.317371E-3,7.843057E-3,1.3429451E-2,5.5167526E-3,2.8314672E-2,2.2748623E-2,1.3939467E-1,1.476416E-1,7.5585246E-3,7.473822E-2,0E0,3.2253563E-3,1.357459E-2,0E0,8.322742E-3,8.9814225E-3,0E0,1.0389276E-3,0E0,1.5084293E-2,4.76856E-2,7.155616E-2,1.4964042E-2,1.4770262E-1,9.082451E-3,6.639088E-3,1.3287481E-3,0E0,1.1867426E-2,3.7903365E-2,1.2791466E-3,0E0,1.1190533E-2,2.316778E-3,3.0909802E-3,0E0,0E0,1.8565613E-4,0E0,0E0,0E0,1.4093826E-3,9.809972E-2,9.6276686E-2,1.9551106E-3,2.9865514E-2,0E0,0E0,0E0,0E0,0E0,0E0,0E0,0E0,0E0,0E0,0E0,0E0,0E0,0E0,0E0,0E0,0E0,0E0,0E0,0E0,0E0,0E0,0E0,0E0,0E0,0E0,0E0,0E0,0E0,0E0,0E0,0E0,0E0,0E0],"parents":[2147483647,0,0,1,1,2,2,3,3,4,4,5,5,6,6,7,7,8,8,9,9,10,10,11,11,12,12,13,13,14,14,15,15,16,16,17,17,18,18,20,20,21,21,23,23,24,24,26,26,28,28,29,29,30,30,31,31,32,32,33,33,34,34,35,35,37,37,38,38,39,39,41,41,42,42,43,43,46,46,50,50,51,51,52,52,53,53,54,54],"right_children":[2,4,6,8,10,12,14,16,18,20,22,24,26,28,30,32,34,36,38,-1,40,42,-1,44,46,-1,48,-1,50,52,54,56,58,60,62,64,-1,66,68,70,-1,72,74,76,-1,-1,78,-1,-1,-1,80,82,84,86,88,-1,-1,-1,-1,-1,-1,-1,-1,-1,-1,-1,-1,-1,-1,-1,-1,-1,-1,-1,-1,-1,-1,-1,-1,-1,-1,-1,-1,-1,-1,-1,-1,-1,-1],"split_conditions":[2.444002E-1,2.3575729E-1,2.5052303E-1,2.259895E-1,2.3952192E-1,2.4742374E-1,2.521053E-1,2.1544054E-1,2.2944635E-1,4.5E0,9.5E0,6.5E0,6.5E0,5.5E0,2.6030493E-1,2.1164086E-1,2.1857996E-1,2.2684392E-1,3.5E0,-2.5041759E-2,6.5E0,3.5E0,-1.5359308E-2,3.5E0,7.5E0,4.7628716E-2,7.5E0,-4.0712837E-2,7E0,5.5E0,2.6373756E-1,1.9900551E-1,5.5E0,5.5E0,2.5E0,8.5E0,2.9910538E-2,2.3032714E-1,5.5E0,5.5E0,-1.5344239E-2,2.5E0,6.5E0,1.5E0,2.4272133E-2,-1.6214563E-2,9.5E0,5.327368E-3,2.4359895E-2,1.7325783E-2,9E0,4.5E0,6.5E0,4.5E0,2.5E0,1.0968813E-3,-6.0453713E-3,5.098263E-2,-7.4582375E-3,-4.9515806E-2,-1.862197E-2,-7.525022E-3,3.0850281E-3,1.0596657E-2,-1.5277864E-3,-4.6857838E-3,2.5997616E-2,-3.0891085E-2,-1.5478135E-3,-6.2064175E-3,4.5649055E-3,1.0278511E-3,-2.2969533E-2,1.1116873E-2,1.597767E-3,1.1168432E-2,-4.1874885E-3,2.2017718E-3,7.330084E-3,-3.2542706E-3,-2.1409465E-2,1.1265014E-2,-4.246631E-2,6.259611E-2,8.924866E-3,-1.1542177E-2,-2.4580969E-2,1.1516081E-2,2.3920112E-3],"split_indices":[1,1,1,1,1,1,1,1,1,0,0,0,0,0,1,1,1,1,0,0,0,0,0,0,0,0,0,0,0,0,1,1,0,0,0,0,0,1,0,0,0,0,0,0,0,0,0,0,0,0,0,0,0,0,0,0,0,0,0,0,0,0,0,0,0,0,0,0,0,0,0,0,0,0,0,0,0,0,0,0,0,0,0,0,0,0,0,0,0],"split_type":[0,0,0,0,0,0,0,0,0,0,0,0,0,0,0,0,0,0,0,0,0,0,0,0,0,0,0,0,0,0,0,0,0,0,0,0,0,0,0,0,0,0,0,0,0,0,0,0,0,0,0,0,0,0,0,0,0,0,0,0,0,0,0,0,0,0,0,0,0,0,0,0,0,0,0,0,0,0,0,0,0,0,0,0,0,0,0,0,0],"sum_hessian":[6.1E2,2.39E2,3.71E2,2.07E2,3.2E1,2.2E1,3.49E2,1.7E2,3.7E1,1.4E1,1.8E1,1.2E1,1E1,8E0,3.41E2,1.34E2,3.6E1,1.2E1,2.5E1,6E0,8E0,1.6E1,2E0,6E0,6E0,6E0,4E0,5E0,3E0,3.2E1,3.09E2,1.19E2,1.5E1,9E0,2.7E1,2E0,1E1,8E0,1.7E1,2E0,6E0,6E0,1E1,3E0,3E0,2E0,4E0,1E0,3E0,1E0,2E0,1.5E1,1.7E1,1.1E1,2.98E2,8.1E1,3.8E1,9E0,6E0,6E0,3E0,6E0,2.1E1,1E0,1E0,1E0,7E0,5E0,1.2E1,1E0,1E0,4E0,2E0,6E0,4E0,1E0,2E0,3E0,1E0,1E0,1E0,1.2E1,3E0,3E0,1.4E1,5E0,6E0,3.6E1,2.62E2],"tree_param":{"num_deleted":"0","num_feature":"2","num_nodes":"89","size_leaf_vector":"0"}},{"base_weights":[5.250113E-3,4.326833E-3,5.0976593E-2,-1.8126715E-2,6.0061216E-3,8.896685E-2,2.8427972E-2,-8.644078E-3,-7.358185E-2,8.075722E-3,-1.2362564E-2,-1.3305664E-2,8.392143E-2,-1.9621937E-2,6.55386E-2,-9.996104E-2,-1.3882319E-2,2.6692916E-2,6.4533865E-3,-1.0496923E-2,-5.8419228E-2,-7.7295303E-4,-2.5580725E-2,-4.2096092E-3,-4.3009393E-2,1.0160414E-1,7.6268516E-3,5.071497E-2,-7.153845E-2,1.8849527E-3,1.0092831E-1,-1.16020046E-1,8.040287E-3,-1.47243645E-2,3.5567857E-2,2.407074E-3,-2.63532E-3,-2.736938E-2,5.825138E-2,-9.2707634E-2,-1.8829156E-2,-2.6079655E-2,3.751993E-2,2.9055977E-2,-4.3557167E-2,1.1458185E-1,-1.0976791E-2,-1.3554573E-1,-9.195805E-3,2.6551453E-2,5.9640696E-3,-8.040576E-3,-5.0480127E-2,6.736565E-2,1.0776997E-2,1.2207031E-4,-4.0750504E-3],"categories":[],"categories_nodes":[],"categories_segments":[],"categories_sizes":[],"default_left":[1,1,1,1,1,0,1,1,1,1,1,1,0,1,1,0,1,1,1,1,0,1,0,1,1,0,1,0,0,1,1,1,1,1,1,0,1,0,0,0,0,0,0,0,0,0,0,0,0,0,0,0,0,0,0,0,0],"id":23,"left_children":[1,3,5,7,9,-1,11,13,15,17,19,21,-1,23,25,-1,27,29,31,33,-1,35,-1,37,39,-1,41,-1,-1,43,45,47,49,51,53,-1,55,-1,-1,-1,-1,-1,-1,-1,-1,-1,-1,-1,-1,-1,-1,-1,-1,-1,-1,-1,-1],"loss_changes":[2.5574837E-2,2.2732463E-2,7.75039E-3,2.145011E-2,2.1350687E-2,0E0,2.1960126E-2,3.1417567E-2,8.061264E-3,1.5020013E-2,4.284513E-3,9.032658E-4,0E0,1.1713968E-2,9.668175E-3,0E0,1.480136E-2,7.347491E-2,9.111267E-2,1.142894E-2,0E0,3.003292E-5,0E0,3.1972528E-2,1.3876691E-2,0E0,4.0012808E-3,0E0,0E0,3.9541572E-2,1.653675E-2,1.1268459E-2,1.7482486E-2,1.2021275E-2,3.2154736E-3,0E0,1.2407138E-5,0E0,0E0,0E0,0E0,0E0,0E0,0E0,0E0,0E0,0E0,0E0,0E0,0E0,0E0,0E0,0E0,0E0,0E0,0E0,0E0],"parents":[2147483647,0,0,1,1,2,2,3,3,4,4,6,6,7,7,8,8,9,9,10,10,11,11,13,13,14,14,16,16,17,17,18,18,19,19,21,21,23,23,24,24,26,26,29,29,30,30,31,31,32,32,33,33,34,34,36,36],"right_children":[2,4,6,8,10,-1,12,14,16,18,20,22,-1,24,26,-1,28,30,32,34,-1,36,-1,38,40,-1,42,-1,-1,44,46,48,50,52,54,-1,56,-1,-1,-1,-1,-1,-1,-1,-1,-1,-1,-1,-1,-1,-1,-1,-1,-1,-1,-1,-1],"split_conditions":[3.6474502E-1,1.8209785E-1,8.5E0,1.7964232E-1,9.5E0,2.6690055E-2,3.773734E-1,1.7830649E-1,3.5E0,1.9900551E-1,3.5821217E-1,3.726852E-1,2.517643E-2,1.6949694E-1,2.5E0,-2.9988313E-2,5.5E0,1.9544181E-1,2.0067114E-1,3.48849E-1,-1.752577E-2,3.6811203E-1,-7.6742177E-3,1.6551755E-1,1.719212E-1,3.0481244E-2,4.5E0,1.5214492E-2,-2.1461535E-2,4.5E0,8.5E0,5E0,2.1544054E-1,3.2968026E-1,3.519092E-1,7.221222E-4,9.5E0,-8.210815E-3,1.7475415E-2,-2.7812291E-2,-5.648747E-3,-7.823897E-3,1.125598E-2,8.716794E-3,-1.30671505E-2,3.4374557E-2,-3.2930376E-3,-4.066372E-2,-2.7587414E-3,7.965436E-3,1.789221E-3,-2.412173E-3,-1.5144039E-2,2.0209694E-2,3.2330991E-3,3.6621095E-5,-1.2225151E-3],"split_indices":[1,1,0,1,0,0,1,1,0,1,1,1,0,1,0,0,0,1,1,1,0,1,0,1,1,0,0,0,0,0,0,0,1,1,1,0,0,0,0,0,0,0,0,0,0,0,0,0,0,0,0,0,0,0,0,0,0],"split_type":[0,0,0,0,0,0,0,0,0,0,0,0,0,0,0,0,0,0,0,0,0,0,0,0,0,0,0,0,0,0,0,0,0,0,0,0,0,0,0,0,0,0,0,0,0,0,0,0,0,0,0,0,0,0,0,0,0],"sum_hessian":[6.1E2,5.99E2,1.1E1,4.1E1,5.58E2,3E0,8E0,3.6E1,5E0,5.02E2,5.6E1,5E0,3E0,3.2E1,4E0,3E0,2E0,3.9E1,4.63E2,5.5E1,1E0,3E0,2E0,2E1,1.2E1,2E0,2E0,1E0,1E0,3E1,9E0,5E0,4.58E2,5.1E1,4E0,1E0,2E0,1.5E1,5E0,3E0,9E0,1E0,1E0,1.9E1,1.1E1,8E0,1E0,4E0,1E0,4.5E1,4.13E2,4.4E1,7E0,1E0,3E0,1E0,1E0],"tree_param":{"num_deleted":"0","num_feature":"2","num_nodes":"57","size_leaf_vector":"0"}},{"base_weights":[3.6729572E-3,-2.712532E-3,7.782754E-3,8.82919E-4,-2.529257E-2,5.6160346E-2,4.581419E-3,-1.9156303E-3,3.4585238E-2,-4.867808E-2,-5.499137E-3,1.5223356E-2,9.943494E-2,-5.0377846E-2,7.7128783E-3,1.3502673E-3,-5.6074142E-2,7.4814E-2,9.498163E-3,-6.354182E-2,-3.1708717E-2,-2.5924683E-2,5.922244E-3,3.8552284E-2,-1.0280336E-2,1.0487394E-1,2.252245E-2,-8.77754E-2,9.278192E-4,4.9235966E-2,4.607253E-3,-3.1030632E-3,7.126626E-2,5.384922E-3,-7.979441E-2,1.20598555E-1,-1.117007E-2,-3.4695625E-2,3.0407786E-2,-2.3668608E-2,-7.475738E-2,-4.293442E-3,-3.8928304E-2,1.1724472E-3,-6.2445004E-2,1.7730974E-2,-3.935051E-2,6.1051846E-3,6.1361313E-2,-4.4431686E-2,1.2266541E-2,1.1467612E-1,4.377683E-2,-4.2444866E-2,-1.9450855E-1,9.065088E-2,-3.7657466E-2,2.1201046E-2,6.917044E-2,-3.6181364E-2,7.696327E-3,3.6373844E-3,-2.6355816E-2,-1.9261042E-2,3.9661407E-2,-1.03267096E-1,-3.0504942E-2,-1.5773773E-2,-9.813309E-4,-3.9316494E-2,-1.0416508E-2,4.068629E-2,-2.8514862E-4,-2.853489E-2,-9.606075E-2,-1.8479347E-2,1.2039185E-2,4.375871E-2,-4.180463E-2,4.328966E-2,1.0846138E-2,3.0749321E-2,-1.2359302E-2,4.345894E-3,2.1974564E-2,-7.749939E-2,5.3497314E-2,-5.9272606E-2,4.6016693E-2,4.6622593E-2,-6.213061E-2,1.5529887E-1,3.9392646E-2,-2.7420043E-3,-5.9120767E-2,3.72856E-2,4.504739E-3],"categories":[],"categories_nodes":[],"categories_segments":[],"categories_sizes":[],"default_left":[1,1,1,1,1,1,1,1,1,1,1,1,1,1,1,1,1,1,1,1,1,1,1,1,1,1,0,1,1,1,1,1,0,1,1,0,1,1,1,0,1,1,0,1,0,1,0,1,0,0,1,0,0,1,0,0,1,1,1,1,1,0,0,0,0,0,0,0,0,0,0,0,0,0,0,0,0,0,0,0,0,0,0,0,0,0,0,0,0,0,0,0,0,0,0,0,0],"id":24,"left_children":[1,3,5,7,9,11,13,15,17,19,21,23,25,27,29,31,33,35,37,39,41,43,45,47,49,51,-1,53,55,57,59,61,-1,63,65,-1,67,69,71,-1,73,75,-1,77,-1,79,-1,81,-1,-1,83,-1,-1,85,-1,-1,87,89,91,93,95,-1,-1,-1,-1,-1,-1,-1,-1,-1,-1,-1,-1,-1,-1,-1,-1,-1,-1,-1,-1,-1,-1,-1,-1,-1,-1,-1,-1,-1,-1,-1,-1,-1,-1,-1,-1],"loss_changes":[1.6055623E-2,1.950683E-2,5.735542E-2,1.9684315E-2,1.5007336E-2,3.9231494E-2,6.062451E-2,3.4212813E-2,1.5436957E-2,1.7685965E-3,4.5860033E-3,8.13099E-3,2.2395775E-3,3.6536865E-2,4.2586267E-2,5.7199843E-2,1.6465764E-2,2.4967544E-2,1.1219847E-2,1.3610013E-3,1.6142055E-3,7.000384E-3,7.6477015E-3,4.805986E-3,5.935067E-3,9.686947E-4,0E0,4.4965096E-2,3.4571588E-2,1.1387322E-2,3.9338168E-2,2.7210843E-2,0E0,4.143028E-3,6.1054938E-3,0E0,1.252385E-4,3.922172E-5,2.5354214E-3,0E0,2.1823905E-3,9.1755553E-4,0E0,1.0980483E-2,0E0,1.466115E-3,0E0,2.2002053E-3,0E0,0E0,2.8896995E-4,0E0,0E0,3.441488E-2,0E0,0E0,1.538793E-2,2.6199307E-2,2.7223658E-2,1.671363E-2,2.712426E-2,0E0,0E0,0E0,0E0,0E0,0E0,0E0,0E0,0E0,0E0,0E0,0E0,0E0,0E0,0E0,0E0,0E0,0E0,0E0,0E0,0E0,0E0,0E0,0E0,0E0,0E0,0E0,0E0,0E0,0E0,0E0,0E0,0E0,0E0,0E0,0E0],"parents":[2147483647,0,0,1,1,2,2,3,3,4,4,5,5,6,6,7,7,8,8,9,9,10,10,11,11,12,12,13,13,14,14,15,15,16,16,17,17,18,18,19,19,20,20,21,21,22,22,23,23,24,24,25,25,27,27,28,28,29,29,30,30,31,31,33,33,34,34,36,36,37,37,38,38,40,40,41,41,43,43,45,45,47,47,50,50,53,53,56,56,57,57,58,58,59,59,60,60],"right_children":[2,4,6,8,10,12,14,16,18,20,22,24,26,28,30,32,34,36,38,40,42,44,46,48,50,52,-1,54,56,58,60,62,-1,64,66,-1,68,70,72,-1,74,76,-1,78,-1,80,-1,82,-1,-1,84,-1,-1,86,-1,-1,88,90,92,94,96,-1,-1,-1,-1,-1,-1,-1,-1,-1,-1,-1,-1,-1,-1,-1,-1,-1,-1,-1,-1,-1,-1,-1,-1,-1,-1,-1,-1,-1,-1,-1,-1,-1,-1,-1,-1],"split_conditions":[2.444002E-1,2.3575729E-1,2.5052303E-1,2.3210919E-1,2.3952192E-1,2.4742374E-1,2.547782E-1,2.2944635E-1,3.5E0,4.5E0,3.5E0,6.5E0,9.5E0,5.5E0,2.6030493E-1,2.2684392E-1,3.5E0,2.3437858E-1,5.5E0,2.3715785E-1,6.5E0,2.5E0,9.5E0,3.5E0,7.5E0,2.4948132E-1,6.756735E-3,4.5E0,6.5E0,5.5E0,2.6607668E-1,2.1544054E-1,2.137988E-2,2.5E0,7.5E0,3.617957E-2,1.5E0,2.3437858E-1,2.3483455E-1,-7.1005826E-3,2.5E0,5.5E0,-1.1678492E-2,2.4193943E-1,-1.8733501E-2,2.4048193E-1,-1.1805153E-2,1.5E0,1.8408395E-2,-1.3329507E-2,9.5E0,3.4402836E-2,1.3133049E-2,3.5E0,-5.8352567E-2,2.7195266E-2,2.537009E-1,4.5E0,6.5E0,4.5E0,2.7334994E-1,1.0912154E-3,-7.906745E-3,-5.7783127E-3,1.1898423E-2,-3.098013E-2,-9.151483E-3,-4.732132E-3,-2.9439927E-4,-1.1794949E-2,-3.1249525E-3,1.2205888E-2,-8.554459E-5,-8.5604675E-3,-2.8818227E-2,-5.5438043E-3,3.6117556E-3,1.3127613E-2,-1.254139E-2,1.2986899E-2,3.2538415E-3,9.224797E-3,-3.7077905E-3,1.3037683E-3,6.592369E-3,-2.3249818E-2,1.6049195E-2,-1.7781783E-2,1.38050085E-2,1.3986778E-2,-1.8639185E-2,4.6589665E-2,1.1817794E-2,-8.226013E-4,-1.773623E-2,1.11856805E-2,1.3514217E-3],"split_indices":[1,1,1,1,1,1,1,1,0,0,0,0,0,0,1,1,0,1,0,1,0,0,0,0,0,1,0,0,0,0,1,1,0,0,0,0,0,1,1,0,0,0,0,1,0,1,0,0,0,0,0,0,0,0,0,0,1,0,0,0,1,0,0,0,0,0,0,0,0,0,0,0,0,0,0,0,0,0,0,0,0,0,0,0,0,0,0,0,0,0,0,0,0,0,0,0,0],"split_type":[0,0,0,0,0,0,0,0,0,0,0,0,0,0,0,0,0,0,0,0,0,0,0,0,0,0,0,0,0,0,0,0,0,0,0,0,0,0,0,0,0,0,0,0,0,0,0,0,0,0,0,0,0,0,0,0,0,0,0,0,0,0,0,0,0,0,0,0,0,0,0,0,0,0,0,0,0,0,0,0,0,0,0,0,0,0,0,0,0,0,0,0,0,0,0,0,0],"sum_hessian":[6.1E2,2.39E2,3.71E2,2.07E2,3.2E1,2.2E1,3.49E2,1.92E2,1.5E1,1.4E1,1.8E1,1.2E1,1E1,1.8E1,3.31E2,1.82E2,1E1,5E0,1E1,6E0,8E0,6E0,1.2E1,6E0,6E0,9E0,1E0,1E1,8E0,2.2E1,3.09E2,1.72E2,1E1,3E0,7E0,3E0,2E0,3E0,7E0,2E0,4E0,2E0,6E0,4E0,2E0,1E1,2E0,3E0,3E0,2E0,4E0,7E0,2E0,8E0,2E0,2E0,6E0,1E1,1.2E1,2.1E1,2.88E2,1.34E2,3.8E1,2E0,1E0,4E0,3E0,1E0,1E0,2E0,1E0,5E0,2E0,2E0,2E0,1E0,1E0,2E0,2E0,1E0,9E0,1E0,2E0,3E0,1E0,6E0,2E0,5E0,1E0,8E0,2E0,2E0,1E1,9E0,1.2E1,2.7E1,2.61E2],"tree_param":{"num_deleted":"0","num_feature":"2","num_nodes":"97","size_leaf_vector":"0"}},{"base_weights":[2.5959483E-3,2.042392E-3,5.0068174E-2,-1.8591816E-2,3.075927E-3,2.7995745E-2,9.125137E-2,1.1816025E-3,-4.6702623E-2,7.056388E-3,-2.5828693E-3,6.654549E-2,-3.2735825E-2,1.7909119E-2,-4.589176E-2,-5.6116953E-2,-1.38447285E-2,4.4018487E-3,7.328547E-2,1.4103254E-3,-1.8501839E-2,-3.1034231E-2,3.4078598E-2,-6.5191984E-2,1.5654564E-2,-2.9728094E-2,-8.1671E-2,-2.1072388E-2,-4.4113793E-3,9.537436E-3,-5.5418015E-3,1.0342741E-1,5.3900145E-2,-3.4687307E-3,6.8858E-2,-1.0104332E-1,-8.701628E-3,2.0739937E-2,8.3732605E-2,-7.40544E-2,-1.9302368E-2,-4.966736E-3,-7.6767445E-2,1.7409325E-3,-8.358002E-3,5.9386073E-3,1.1613982E-1,-2.7692368E-2,5.755043E-3,1.54800415E-2,7.693354E-2,5.807323E-4,-2.7476348E-2,3.0300412E-2,9.757873E-2,-2.6407242E-2,-1.1310053E-1,1.3559782E-2,-1.74734E-2],"categories":[],"categories_nodes":[],"categories_segments":[],"categories_sizes":[],"default_left":[1,1,1,1,1,1,0,1,1,1,1,0,0,1,1,1,1,1,1,1,1,0,1,1,0,1,0,0,1,1,1,0,1,1,1,1,1,0,0,0,0,0,0,0,0,0,0,0,0,0,0,0,0,0,0,0,0,0,0],"id":25,"left_children":[1,3,5,7,9,11,-1,13,15,17,19,-1,-1,21,23,25,27,29,31,33,35,-1,37,39,-1,41,-1,-1,43,45,47,-1,49,51,53,55,57,-1,-1,-1,-1,-1,-1,-1,-1,-1,-1,-1,-1,-1,-1,-1,-1,-1,-1,-1,-1,-1,-1],"loss_changes":[1.5953932E-2,1.2959521E-2,3.8084425E-3,1.6174741E-2,1.3014931E-2,1.6225541E-2,0E0,1.4995448E-2,2.9350966E-3,5.9276227E-2,1.5218735E-2,0E0,0E0,1.2137041E-2,6.9598407E-3,3.6411546E-3,1.7976586E-4,1.6751595E-2,2.0212904E-3,6.34224E-2,3.7949104E-2,0E0,5.548889E-3,1.9734539E-4,0E0,6.607266E-3,0E0,0E0,8.739326E-5,8.217734E-2,2.81853E-2,0E0,7.6585226E-3,1.751519E-2,1.1439551E-2,1.5128404E-3,8.828904E-3,0E0,0E0,0E0,0E0,0E0,0E0,0E0,0E0,0E0,0E0,0E0,0E0,0E0,0E0,0E0,0E0,0E0,0E0,0E0,0E0,0E0,0E0],"parents":[2147483647,0,0,1,1,2,2,3,3,4,4,5,5,7,7,8,8,9,9,10,10,13,13,14,14,15,15,16,16,17,17,18,18,19,19,20,20,22,22,23,23,25,25,28,28,29,29,30,30,32,32,33,33,34,34,35,35,36,36],"right_children":[2,4,6,8,10,12,-1,14,16,18,20,-1,-1,22,24,26,28,30,32,34,36,-1,38,40,-1,42,-1,-1,44,46,48,-1,50,52,54,56,58,-1,-1,-1,-1,-1,-1,-1,-1,-1,-1,-1,-1,-1,-1,-1,-1,-1,-1,-1,-1,-1,-1],"split_conditions":[3.7152058E-1,1.7493306E-1,3.846312E-1,2.5E0,6.5E0,9.5E0,2.7375413E-2,1.6926089E-1,4.5E0,3.3241254E-1,3.287696E-1,1.9963646E-2,-9.820748E-3,1.4634931E-1,1.7366172E-1,3.5E0,1.6977236E-1,2.727329E-1,4.5E0,3.2171813E-1,3.3241254E-1,-9.31027E-3,1.6690654E-1,1.7241949E-1,4.696369E-3,1.7122619E-1,-2.4501301E-2,-6.3217166E-3,5.5E0,2.7088174E-1,2.8915828E-1,3.1028224E-2,3.438424E-1,3.0534548E-1,8.5E0,3.30581E-1,3.399461E-1,6.2219813E-3,2.5119783E-2,-2.221632E-2,-5.7907104E-3,-1.4900208E-3,-2.3030235E-2,5.2227976E-4,-2.5074007E-3,1.7815823E-3,3.4841947E-2,-8.307711E-3,1.726513E-3,4.6440125E-3,2.3080062E-2,1.7421969E-4,-8.242905E-3,9.090124E-3,2.927362E-2,-7.922173E-3,-3.393016E-2,4.0679346E-3,-5.24202E-3],"split_indices":[1,1,1,0,0,0,0,1,0,1,1,0,0,1,1,0,1,1,0,1,1,0,1,1,0,1,0,0,0,1,1,0,1,1,0,1,1,0,0,0,0,0,0,0,0,0,0,0,0,0,0,0,0,0,0,0,0,0,0],"split_type":[0,0,0,0,0,0,0,0,0,0,0,0,0,0,0,0,0,0,0,0,0,0,0,0,0,0,0,0,0,0,0,0,0,0,0,0,0,0,0,0,0,0,0,0,0,0,0,0,0,0,0,0,0,0,0,0,0,0,0],"sum_hessian":[6.1E2,6.04E2,6E0,2.8E1,5.76E2,5E0,1E0,1.7E1,1.1E1,3.38E2,2.38E2,3E0,2E0,1.3E1,4E0,8E0,3E0,3.26E2,1.2E1,1.91E2,4.7E1,3E0,1E1,3E0,1E0,5E0,3E0,1E0,2E0,2.15E2,1.11E2,3E0,9E0,1.79E2,1.2E1,4E0,4.3E1,9E0,1E0,2E0,1E0,4E0,1E0,1E0,1E0,2.09E2,6E0,3.7E1,7.4E1,4E0,5E0,1.54E2,2.5E1,6E0,6E0,1E0,3E0,1.2E1,3.1E1],"tree_param":{"num_deleted":"0","num_feature":"2","num_nodes":"59","size_leaf_vector":"0"}},{"base_weights":[1.9070943E-3,-1.7707398E-3,7.922912E-3,-1.8961365E-4,-5.4793097E-2,2.5002193E-2,1.9536652E-3,-1.2604077E-3,3.4871794E-2,-6.785054E-2,2.6435852E-3,8.366962E-3,8.450134E-2,-6.418956E-2,6.405333E-3,7.485826E-4,-6.5068245E-2,5.4490805E-2,-1.3084173E-2,-1.1753559E-2,-9.39401E-2,-8.7976456E-4,4.8451424E-3,-1.3207245E-2,3.0491471E-2,4.1712187E-2,9.888405E-2,-7.8058876E-2,-3.962199E-2,4.2367414E-2,3.777959E-3,-1.1329426E-3,5.883676E-2,-4.477799E-2,-8.9381695E-2,2.5484085E-2,6.679802E-2,-2.8618813E-2,1.6336441E-3,-2.8928757E-2,3.6144257E-3,5.3560894E-2,-3.2577325E-2,6.841712E-2,-1.4852115E-3,-2.432537E-2,6.430292E-2,1.3608885E-1,5.760018E-2,2.2017162E-3,-6.108427E-2,1.6313363E-2,1.5145397E-1,-7.529874E-4,2.2379939E-2,1.1613037E-3,-1.8869596E-2,1.0579376E-1,1.6890798E-2,-5.6321826E-2,1.8014431E-2,9.2243195E-2,3.7375927E-2,6.8707466E-3,-4.4202805E-3,1.0978699E-2,-5.5570602E-3,2.0701408E-2,7.9519905E-2,1.8339038E-2,-6.1404523E-2,3.570382E-2,8.972756E-2,4.3578863E-2,-1.7737128E-2,7.2795235E-2,1.9412994E-2,1.0993321E-2,7.815528E-2,4.8303604E-4,2.8195381E-3,5.7088852E-2,-2.0385107E-2,2.9796294E-3,-2.1537429E-2,6.19545E-2,1.5688155E-2],"categories":[],"categories_nodes":[],"categories_segments":[],"categories_sizes":[],"default_left":[1,1,1,1,1,1,1,1,1,1,1,1,1,1,1,1,1,1,1,1,0,0,0,1,1,1,1,0,1,1,1,1,1,1,0,0,1,0,1,0,1,1,1,1,1,0,1,0,1,1,0,1,0,1,1,0,0,0,0,0,0,0,0,0,0,0,0,0,0,0,0,0,0,0,0,0,0,0,0,0,0,0,0,0,0,0,0],"id":26,"left_children":[1,3,5,7,9,11,13,15,17,19,21,23,25,27,29,31,33,35,37,39,-1,-1,-1,41,43,45,47,-1,49,51,53,55,57,59,-1,-1,61,-1,63,-1,65,67,69,71,73,-1,75,-1,77,79,-1,81,-1,83,85,-1,-1,-1,-1,-1,-1,-1,-1,-1,-1,-1,-1,-1,-1,-1,-1,-1,-1,-1,-1,-1,-1,-1,-1,-1,-1,-1,-1,-1,-1,-1,-1],"loss_changes":[1.3532516E-2,3.1846926E-2,2.360366E-2,1.3935066E-2,8.429106E-3,5.867991E-2,5.1350605E-2,4.6196867E-2,1.1062302E-2,1.206778E-2,2.7533151E-5,2.3314007E-2,3.8758442E-3,6.552413E-4,1.5241129E-2,3.8319692E-2,1.424253E-3,1.1536498E-3,9.612969E-4,1.1603537E-3,0E0,0E0,0E0,3.4077473E-2,2.9207284E-2,9.023375E-3,5.98488E-3,0E0,5.5202823E-3,2.8792894E-2,1.2912392E-2,1.3857279E-2,1.9879282E-2,6.813528E-3,0E0,0E0,2.955757E-4,0E0,1.254857E-4,0E0,2.6363326E-4,3.4718234E-3,3.048162E-2,4.464872E-3,1.1026251E-2,0E0,1.1170469E-4,0E0,4.888866E-3,1.823576E-6,0E0,1.6127743E-2,0E0,9.684138E-3,6.9727805E-3,0E0,0E0,0E0,0E0,0E0,0E0,0E0,0E0,0E0,0E0,0E0,0E0,0E0,0E0,0E0,0E0,0E0,0E0,0E0,0E0,0E0,0E0,0E0,0E0,0E0,0E0,0E0,0E0,0E0,0E0,0E0,0E0],"parents":[2147483647,0,0,1,1,2,2,3,3,4,4,5,5,6,6,7,7,8,8,9,9,10,10,11,11,12,12,13,13,14,14,15,15,16,16,17,17,18,18,19,19,23,23,24,24,25,25,26,26,28,28,29,29,30,30,31,31,32,32,33,33,36,36,38,38,40,40,41,41,42,42,43,43,44,44,46,46,48,48,49,49,51,51,53,53,54,54],"right_children":[2,4,6,8,10,12,14,16,18,20,22,24,26,28,30,32,34,36,38,40,-1,-1,-1,42,44,46,48,-1,50,52,54,56,58,60,-1,-1,62,-1,64,-1,66,68,70,72,74,-1,76,-1,78,80,-1,82,-1,84,86,-1,-1,-1,-1,-1,-1,-1,-1,-1,-1,-1,-1,-1,-1,-1,-1,-1,-1,-1,-1,-1,-1,-1,-1,-1,-1,-1,-1,-1,-1,-1,-1],"split_conditions":[2.81032E-1,2.784238E-1,2.962981E-1,2.7586353E-1,8.5E0,2.934003E-1,2.9925373E-1,2.7334994E-1,7.5E0,3.5E0,9.5E0,5.5E0,4.5E0,5.5E0,2.5E0,2.7088174E-1,7.5E0,3.5E0,2.7713776E-1,1.5E0,-2.8182032E-2,-2.6392937E-4,1.4535427E-3,1.5E0,7.5E0,2.9484206E-1,7.5E0,-2.3417663E-2,7.5E0,3.234713E-1,3.498572E-1,2.6030493E-1,4.5E0,6.5E0,-2.681451E-2,7.6452256E-3,4.5E0,-8.585644E-3,9E0,-8.678627E-3,2.5E0,2.8777143E-1,2.8503725E-1,6.5E0,2.8368953E-1,-7.2976113E-3,3.5E0,4.0826656E-2,2.9484206E-1,6.5E0,-1.8325282E-2,1.5E0,4.5436192E-2,9.5E0,6.5E0,3.4839113E-4,-5.660879E-3,3.173813E-2,5.0672395E-3,-1.6896548E-2,5.4043294E-3,2.767296E-2,1.1212778E-2,2.061224E-3,-1.3260841E-3,3.2936097E-3,-1.6671182E-3,6.2104226E-3,2.3855973E-2,5.5017117E-3,-1.8421357E-2,1.07111465E-2,2.6918268E-2,1.30736595E-2,-5.3211385E-3,2.1838572E-2,5.8238986E-3,3.2979965E-3,2.3446584E-2,1.4491082E-4,8.4586145E-4,1.7126657E-2,-6.1155325E-3,8.938889E-4,-6.4612287E-3,1.858635E-2,4.7064465E-3],"split_indices":[1,1,1,1,0,1,1,1,0,0,0,0,0,0,0,1,0,0,1,0,0,0,0,0,0,1,0,0,0,1,1,1,0,0,0,0,0,0,0,0,0,1,1,0,1,0,0,0,1,0,0,0,0,0,0,0,0,0,0,0,0,0,0,0,0,0,0,0,0,0,0,0,0,0,0,0,0,0,0,0,0,0,0,0,0,0,0],"split_type":[0,0,0,0,0,0,0,0,0,0,0,0,0,0,0,0,0,0,0,0,0,0,0,0,0,0,0,0,0,0,0,0,0,0,0,0,0,0,0,0,0,0,0,0,0,0,0,0,0,0,0,0,0,0,0,0,0,0,0,0,0,0,0,0,0,0,0,0,0,0,0,0,0,0,0,0,0,0,0,0,0,0,0,0,0,0,0],"sum_hessian":[6.1E2,3.79E2,2.31E2,3.69E2,1E1,5.9E1,1.72E2,3.59E2,1E1,8E0,2E0,4.7E1,1.2E1,1E1,1.62E2,3.49E2,1E1,7E0,3E0,3E0,5E0,1E0,1E0,2.4E1,2.3E1,4E0,8E0,5E0,5E0,1E1,1.52E2,3.39E2,1E1,7E0,3E0,3E0,4E0,1E0,2E0,1E0,2E0,5E0,1.9E1,1E1,1.3E1,1E0,3E0,3E0,5E0,2E0,3E0,9E0,1E0,1.23E2,2.9E1,3.01E2,3.8E1,4E0,6E0,6E0,1E0,1E0,3E0,1E0,1E0,1E0,1E0,3E0,2E0,7E0,1.2E1,5E0,5E0,3E0,1E1,2E0,1E0,2E0,3E0,1E0,1E0,4E0,5E0,1.05E2,1.8E1,3E0,2.6E1],"tree_param":{"num_deleted":"0","num_feature":"2","num_nodes":"87","size_leaf_vector":"0"}},{"base_weights":[1.6324266E-3,-8.205174E-3,3.6199323E-3,3.6490837E-4,-3.977524E-2,3.3218585E-2,1.5646376E-3,-8.17887E-3,5.6254648E-2,-8.86799E-2,2.7778339E-2,7.4048E-2,-2.7481897E-2,-1.0115919E-1,3.756248E-3,-1.0172931E-3,-2.9607084E-2,8.1521355E-2,-3.8297016E-2,-5.5778503E-2,-1.4876342E-1,4.159069E-2,-4.826641E-2,4.216993E-2,1.612482E-1,-4.3902207E-2,1.0855103E-2,-1.1919212E-1,-4.431176E-2,1.9485284E-2,2.2809156E-3,-1.1522489E-2,2.3142703E-2,6.3124658E-3,-6.622802E-2,1.09612085E-1,3.712635E-2,-1.0137081E-2,-4.7308445E-2,-6.716837E-2,-2.1901608E-2,-9.2077255E-3,5.7419915E-2,1.412923E-2,5.7581425E-2,8.724213E-3,-6.77027E-2,2.7671495E-2,-9.5796585E-3,-1.1318843E-2,-7.164526E-2,5.6201047E-3,4.7849875E-2,-4.369545E-2,3.4824887E-3,-4.0641197E-4,-3.1343598E-2,1.0828654E-1,4.571088E-3,-1.8084254E-2,4.7428608E-2,-8.062859E-2,-3.858185E-2,3.5826366E-3,5.8294613E-2,-2.3579597E-3,-2.763017E-2,1.1090914E-1,1.3842392E-2,3.5644215E-2,-1.605606E-3,2.5963306E-2,6.7423E-2,3.8686275E-2,-1.41585665E-2,-8.221817E-2,9.695053E-3,6.3886642E-3,3.511858E-2,-1.6442776E-2,2.073288E-3,-8.686213E-3,1.6892731E-2,5.6940366E-2,1.3161182E-2,3.702402E-3,-6.1932445E-2,4.0701434E-2,2.4729755E-3],"categories":[],"categories_nodes":[],"categories_segments":[],"categories_sizes":[],"default_left":[1,1,1,1,1,1,1,1,1,1,1,1,1,1,1,1,1,1,1,1,0,1,0,1,0,1,1,0,1,1,1,1,1,1,1,0,1,0,0,0,1,0,1,1,1,1,1,1,1,0,0,1,1,1,1,0,0,0,0,0,0,0,0,0,0,0,0,0,0,0,0,0,0,0,0,0,0,0,0,0,0,0,0,0,0,0,0,0,0],"id":27,"left_children":[1,3,5,7,9,11,13,15,17,19,21,23,25,27,29,31,33,35,37,39,-1,41,-1,43,-1,45,47,-1,49,51,53,55,57,59,61,-1,63,-1,-1,-1,65,-1,67,69,71,73,75,77,79,-1,-1,81,83,85,87,-1,-1,-1,-1,-1,-1,-1,-1,-1,-1,-1,-1,-1,-1,-1,-1,-1,-1,-1,-1,-1,-1,-1,-1,-1,-1,-1,-1,-1,-1,-1,-1,-1,-1],"loss_changes":[1.1976148E-2,2.7881995E-2,3.0912507E-2,3.961588E-2,7.514444E-2,8.382103E-2,1.0776728E-1,1.1018987E-2,2.9401124E-2,1.740101E-2,1.2511E-2,4.879564E-2,9.289638E-3,4.9696416E-3,1.0815756E-2,1.4225963E-2,2.4095397E-2,7.1542934E-3,2.8171437E-4,2.387438E-3,0E0,7.7656014E-3,0E0,6.1008055E-3,0E0,1.3116002E-2,1.9832784E-3,0E0,2.7963053E-3,1.5462284E-2,2.3851829E-2,8.580246E-3,2.6386408E-2,1.0888701E-2,4.7228485E-4,0E0,3.341462E-3,0E0,0E0,0E0,3.826773E-4,0E0,1.4781248E-2,2.426974E-3,1.3611987E-3,3.2902034E-3,8.661363E-3,2.5112415E-4,2.740172E-4,0E0,0E0,4.6622874E-3,3.3499803E-3,9.737635E-3,1.5642438E-2,0E0,0E0,0E0,0E0,0E0,0E0,0E0,0E0,0E0,0E0,0E0,0E0,0E0,0E0,0E0,0E0,0E0,0E0,0E0,0E0,0E0,0E0,0E0,0E0,0E0,0E0,0E0,0E0,0E0,0E0,0E0,0E0,0E0,0E0],"parents":[2147483647,0,0,1,1,2,2,3,3,4,4,5,5,6,6,7,7,8,8,9,9,10,10,11,11,12,12,13,13,14,14,15,15,16,16,17,17,18,18,19,19,21,21,23,23,25,25,26,26,28,28,29,29,30,30,31,31,32,32,33,33,34,34,36,36,40,40,42,42,43,43,44,44,45,45,46,46,47,47,48,48,51,51,52,52,53,53,54,54],"right_children":[2,4,6,8,10,12,14,16,18,20,22,24,26,28,30,32,34,36,38,40,-1,42,-1,44,-1,46,48,-1,50,52,54,56,58,60,62,-1,64,-1,-1,-1,66,-1,68,70,72,74,76,78,80,-1,-1,82,84,86,88,-1,-1,-1,-1,-1,-1,-1,-1,-1,-1,-1,-1,-1,-1,-1,-1,-1,-1,-1,-1,-1,-1,-1,-1,-1,-1,-1,-1,-1,-1,-1,-1,-1,-1],"split_conditions":[2.0654106E-1,1.9900551E-1,2.1544054E-1,1.9544181E-1,4.5E0,5.5E0,2.1857996E-1,4.5E0,8.5E0,3.5E0,2.051336E-1,2.1352583E-1,8.5E0,5.5E0,2.2944635E-1,1.8519224E-1,1.8604696E-1,4.5E0,9.5E0,2.0339218E-1,-4.4629026E-2,2.0168124E-1,-1.4479924E-2,2.5E0,4.8374463E-2,6.5E0,2.1203797E-1,-3.575764E-2,7.5E0,2.259895E-1,2.3210919E-1,2.5E0,1.8662564E-1,1.8155351E-1,6.5E0,3.2883625E-2,6E0,-3.0411244E-3,-1.4192534E-2,-2.0150512E-2,1.5E0,-2.7623177E-3,2.0304626E-1,2.0834339E-1,2.0870134E-1,2.0980047E-1,2.1428844E-1,9.5E0,9.5E0,-3.395653E-3,-2.1493578E-2,4.5E0,8.5E0,3.5E0,2.3483455E-1,-1.2192359E-4,-9.40308E-3,3.2485962E-2,1.3713265E-3,-5.4252762E-3,1.4228583E-2,-2.4188578E-2,-1.1574555E-2,1.0747911E-3,1.7488385E-2,-7.073879E-4,-8.289051E-3,3.3272743E-2,4.1527175E-3,1.0693265E-2,-4.8168184E-4,7.788992E-3,2.0226901E-2,1.1605883E-2,-4.24757E-3,-2.4665453E-2,2.908516E-3,1.9165993E-3,1.05355745E-2,-4.932833E-3,6.219864E-4,-2.6058638E-3,5.0678197E-3,1.708211E-2,3.948355E-3,1.1107207E-3,-1.8579734E-2,1.2210431E-2,7.4189267E-4],"split_indices":[1,1,1,1,0,0,1,0,0,0,1,1,0,0,1,1,1,0,0,1,0,1,0,0,0,0,1,0,0,1,1,0,1,1,0,0,0,0,0,0,0,0,1,1,1,1,1,0,0,0,0,0,0,0,1,0,0,0,0,0,0,0,0,0,0,0,0,0,0,0,0,0,0,0,0,0,0,0,0,0,0,0,0,0,0,0,0,0,0],"split_type":[0,0,0,0,0,0,0,0,0,0,0,0,0,0,0,0,0,0,0,0,0,0,0,0,0,0,0,0,0,0,0,0,0,0,0,0,0,0,0,0,0,0,0,0,0,0,0,0,0,0,0,0,0,0,0,0,0,0,0,0,0,0,0,0,0,0,0,0,0,0,0,0,0,0,0,0,0,0,0,0,0,0,0,0,0,0,0,0,0],"sum_hessian":[6.1E2,1.02E2,5.08E2,8.1E1,2.1E1,3.2E1,4.76E2,7.1E1,1E1,1.2E1,9E0,1.9E1,1.3E1,9E0,4.67E2,5.4E1,1.7E1,8E0,2E0,9E0,3E0,8E0,1E0,1.5E1,4E0,9E0,4E0,6E0,3E0,3.9E1,4.28E2,3.8E1,1.6E1,9E0,8E0,4E0,4E0,1E0,1E0,6E0,3E0,2E0,6E0,6E0,9E0,3E0,6E0,2E0,2E0,2E0,1E0,2.7E1,1.2E1,1E1,4.18E2,2.5E1,1.3E1,2E0,1.4E1,6E0,3E0,4E0,4E0,2E0,2E0,1E0,2E0,2E0,4E0,2E0,4E0,3E0,6E0,1E0,2E0,5E0,1E0,1E0,1E0,1E0,1E0,1.2E1,1.5E1,9E0,3E0,3E0,7E0,1E1,4.08E2],"tree_param":{"num_deleted":"0","num_feature":"2","num_nodes":"89","size_leaf_vector":"0"}},{"base_weights":[1.1699399E-3,9.264852E-4,7.483864E-2,-3.2590947E-3,3.6316407E-3,3.0075975E-5,-2.0744424E-2,4.0428743E-2,1.1962109E-3,-4.0944894E-3,1.2733135E-2,-3.2969665E-2,-6.783937E-3,1.0169763E-2,7.251401E-2,-6.2413428E-2,2.8715497E-3,1.7341331E-3,-4.3232966E-2,3.8258374E-2,7.006509E-4,-9.937604E-3,-3.9984513E-2,-2.071476E-2,5.2307304E-3,2.7943065E-2,-9.056364E-3,7.606306E-2,1.8511772E-2,-8.69902E-2,-9.944916E-3,1.8383835E-2,1.2056049E-3,-2.8960109E-3,7.559967E-2,-7.687578E-2,-8.718317E-3,8.692828E-3,8.6085476E-2,-5.8417637E-2,1.2500954E-2,-1.3701439E-2,-1.6066233E-3,-6.031971E-2,-2.7106285E-2,1.8074512E-2,-2.7822733E-2,3.1899642E-2,-1.4565741E-2,3.4992695E-3,4.5401096E-2,-3.6388397E-2,9.154129E-3,-5.033817E-2,-1.3512516E-1,2.0870527E-2,-5.119562E-2,-3.2427527E-3,5.6500595E-2,-3.8600523E-2,2.8044905E-3],"categories":[],"categories_nodes":[],"categories_segments":[],"categories_sizes":[],"default_left":[1,1,0,1,1,1,1,1,1,1,1,1,1,1,1,1,1,1,1,1,1,1,1,1,1,1,1,0,0,1,1,1,1,0,0,0,0,0,0,0,0,0,0,0,0,0,0,0,0,0,0,0,0,0,0,0,0,0,0,0,0],"id":28,"left_children":[1,3,-1,5,7,9,11,13,15,17,19,21,23,25,27,29,31,33,35,37,39,41,43,45,47,49,51,-1,-1,53,55,57,59,-1,-1,-1,-1,-1,-1,-1,-1,-1,-1,-1,-1,-1,-1,-1,-1,-1,-1,-1,-1,-1,-1,-1,-1,-1,-1,-1,-1],"loss_changes":[1.0888941E-2,6.9186487E-3,0E0,1.3803559E-2,3.3199456E-2,1.0688239E-2,6.2618107E-3,2.1592505E-2,3.737135E-2,3.5205975E-2,1.5329794E-2,2.8339755E-3,3.288463E-3,4.6953154E-3,7.0015714E-4,1.07404515E-2,8.790167E-3,4.6390027E-2,2.2553172E-2,2.1876223E-2,2.5146756E-2,1.6612554E-4,2.293177E-3,2.9842998E-3,6.2720957E-3,2.8283126E-3,3.8172128E-3,0E0,0E0,3.7835054E-3,6.1531146E-3,2.7386287E-2,1.97747E-2,0E0,0E0,0E0,0E0,0E0,0E0,0E0,0E0,0E0,0E0,0E0,0E0,0E0,0E0,0E0,0E0,0E0,0E0,0E0,0E0,0E0,0E0,0E0,0E0,0E0,0E0,0E0,0E0],"parents":[2147483647,0,0,1,1,3,3,4,4,5,5,6,6,7,7,8,8,9,9,10,10,11,11,12,12,13,13,14,14,15,15,16,16,17,17,18,18,19,19,20,20,21,21,22,22,23,23,24,24,25,25,26,26,29,29,30,30,31,31,32,32],"right_children":[2,4,-1,6,8,10,12,14,16,18,20,22,24,26,28,30,32,34,36,38,40,42,44,46,48,50,52,-1,-1,54,56,58,60,-1,-1,-1,-1,-1,-1,-1,-1,-1,-1,-1,-1,-1,-1,-1,-1,-1,-1,-1,-1,-1,-1,-1,-1,-1,-1,-1,-1],"split_conditions":[3.846312E-1,2.444002E-1,2.2451593E-2,2.3483455E-1,2.5052303E-1,2.2140524E-1,2.3952192E-1,2.4742374E-1,2.521053E-1,2.1544054E-1,3.5E0,2.3575729E-1,4.5E0,6.5E0,9.5E0,5.5E0,2.6030493E-1,2.1390443E-1,2.1857996E-1,2.5E0,4.5E0,5.5E0,3.5E0,2.4048193E-1,6.5E0,3.5E0,7.5E0,2.281892E-2,5.553532E-3,4.5E0,9E0,2.580657E-1,2.6373756E-1,-8.688033E-4,2.2679903E-2,-2.3062736E-2,-2.6154954E-3,2.6078485E-3,2.5825644E-2,-1.7525291E-2,3.7502863E-3,-4.1104318E-3,-4.81987E-4,-1.8095914E-2,-8.131886E-3,5.4223537E-3,-8.34682E-3,9.569893E-3,-4.369722E-3,1.0497809E-3,1.3620329E-2,-1.091652E-2,2.7462388E-3,-1.5101452E-2,-4.053755E-2,6.2611583E-3,-1.5358687E-2,-9.7282586E-4,1.6950179E-2,-1.1580157E-2,8.413472E-4],"split_indices":[1,1,0,1,1,1,1,1,1,1,0,1,0,0,0,0,1,1,1,0,0,0,0,1,0,0,0,0,0,0,0,1,1,0,0,0,0,0,0,0,0,0,0,0,0,0,0,0,0,0,0,0,0,0,0,0,0,0,0,0,0],"split_type":[0,0,0,0,0,0,0,0,0,0,0,0,0,0,0,0,0,0,0,0,0,0,0,0,0,0,0,0,0,0,0,0,0,0,0,0,0,0,0,0,0,0,0,0,0,0,0,0,0,0,0,0,0,0,